digraph Tree {
node [shape=box, style="filled, rounded", color="black", fontname=helvetica] ;
edge [fontname=helvetica] ;
0 [label=<classificacao_gravidade &le; 0.5<br/>gini = 0.402<br/>samples = 30436<br/>value = [22842, 2475, 5119]<br/>class = Favorável>, fillcolor="#e58139b3"] ;
1 [label=<grupo_agente &le; 1.5<br/>gini = 0.307<br/>samples = 27021<br/>value = [21986, 292, 4743]<br/>class = Favorável>, fillcolor="#e58139c5"] ;
0 -> 1 [labeldistance=2.5, labelangle=45, headlabel="True"] ;
2 [label=<grupo_agente &le; 0.5<br/>gini = 0.057<br/>samples = 14894<br/>value = [14457, 213, 224]<br/>class = Favorável>, fillcolor="#e58139f7"] ;
1 -> 2 ;
3 [label=<classificacao_idade &le; 3.5<br/>gini = 0.048<br/>samples = 6889<br/>value = [6722, 92, 75]<br/>class = Favorável>, fillcolor="#e58139f9"] ;
2 -> 3 ;
4 [label=<mesoregiao &le; 0.5<br/>gini = 0.043<br/>samples = 6648<br/>value = [6503, 84, 61]<br/>class = Favorável>, fillcolor="#e58139f9"] ;
3 -> 4 ;
5 [label=<sexo &le; 0.5<br/>gini = 0.066<br/>samples = 1722<br/>value = [1664, 29, 29]<br/>class = Favorável>, fillcolor="#e58139f6"] ;
4 -> 5 ;
6 [label=<classificacao_idade &le; 0.5<br/>gini = 0.043<br/>samples = 1187<br/>value = [1161, 13, 13]<br/>class = Favorável>, fillcolor="#e58139f9"] ;
5 -> 6 ;
7 [label=<local_atendimento &le; 0.5<br/>gini = 0.098<br/>samples = 117<br/>value = [111, 1, 5]<br/>class = Favorável>, fillcolor="#e58139f1"] ;
6 -> 7 ;
8 [label=<gini = 0.157<br/>samples = 59<br/>value = [54, 1, 4]<br/>class = Favorável>, fillcolor="#e58139e8"] ;
7 -> 8 ;
9 [label=<local_atendimento &le; 2.5<br/>gini = 0.034<br/>samples = 58<br/>value = [57, 0, 1]<br/>class = Favorável>, fillcolor="#e58139fb"] ;
7 -> 9 ;
10 [label=<gini = 0.0<br/>samples = 28<br/>value = [28, 0, 0]<br/>class = Favorável>, fillcolor="#e58139ff"] ;
9 -> 10 ;
11 [label=<local_atendimento &le; 3.5<br/>gini = 0.064<br/>samples = 30<br/>value = [29, 0, 1]<br/>class = Favorável>, fillcolor="#e58139f6"] ;
9 -> 11 ;
12 [label=<gini = 0.08<br/>samples = 24<br/>value = [23, 0, 1]<br/>class = Favorável>, fillcolor="#e58139f4"] ;
11 -> 12 ;
13 [label=<gini = 0.0<br/>samples = 6<br/>value = [6, 0, 0]<br/>class = Favorável>, fillcolor="#e58139ff"] ;
11 -> 13 ;
14 [label=<classificacao_idade &le; 2.5<br/>gini = 0.037<br/>samples = 1070<br/>value = [1050, 12, 8]<br/>class = Favorável>, fillcolor="#e58139fa"] ;
6 -> 14 ;
15 [label=<local_atendimento &le; 0.5<br/>gini = 0.02<br/>samples = 592<br/>value = [586, 4, 2]<br/>class = Favorável>, fillcolor="#e58139fc"] ;
14 -> 15 ;
16 [label=<classificacao_idade &le; 1.5<br/>gini = 0.028<br/>samples = 347<br/>value = [342, 4, 1]<br/>class = Favorável>, fillcolor="#e58139fb"] ;
15 -> 16 ;
17 [label=<gini = 0.041<br/>samples = 97<br/>value = [95, 1, 1]<br/>class = Favorável>, fillcolor="#e58139fa"] ;
16 -> 17 ;
18 [label=<gini = 0.024<br/>samples = 250<br/>value = [247, 3, 0]<br/>class = Favorável>, fillcolor="#e58139fc"] ;
16 -> 18 ;
19 [label=<local_atendimento &le; 1.5<br/>gini = 0.008<br/>samples = 245<br/>value = [244, 0, 1]<br/>class = Favorável>, fillcolor="#e58139fe"] ;
15 -> 19 ;
20 [label=<classificacao_idade &le; 1.5<br/>gini = 0.012<br/>samples = 168<br/>value = [167, 0, 1]<br/>class = Favorável>, fillcolor="#e58139fd"] ;
19 -> 20 ;
21 [label=<gini = 0.0<br/>samples = 51<br/>value = [51, 0, 0]<br/>class = Favorável>, fillcolor="#e58139ff"] ;
20 -> 21 ;
22 [label=<gini = 0.017<br/>samples = 117<br/>value = [116, 0, 1]<br/>class = Favorável>, fillcolor="#e58139fd"] ;
20 -> 22 ;
23 [label=<gini = 0.0<br/>samples = 77<br/>value = [77, 0, 0]<br/>class = Favorável>, fillcolor="#e58139ff"] ;
19 -> 23 ;
24 [label=<local_atendimento &le; 0.5<br/>gini = 0.057<br/>samples = 478<br/>value = [464, 8, 6]<br/>class = Favorável>, fillcolor="#e58139f7"] ;
14 -> 24 ;
25 [label=<gini = 0.071<br/>samples = 303<br/>value = [292, 7, 4]<br/>class = Favorável>, fillcolor="#e58139f6"] ;
24 -> 25 ;
26 [label=<local_atendimento &le; 7.5<br/>gini = 0.034<br/>samples = 175<br/>value = [172, 1, 2]<br/>class = Favorável>, fillcolor="#e58139fb"] ;
24 -> 26 ;
27 [label=<local_atendimento &le; 2.5<br/>gini = 0.026<br/>samples = 153<br/>value = [151, 0, 2]<br/>class = Favorável>, fillcolor="#e58139fc"] ;
26 -> 27 ;
28 [label=<local_atendimento &le; 1.5<br/>gini = 0.018<br/>samples = 112<br/>value = [111, 0, 1]<br/>class = Favorável>, fillcolor="#e58139fd"] ;
27 -> 28 ;
29 [label=<gini = 0.019<br/>samples = 103<br/>value = [102, 0, 1]<br/>class = Favorável>, fillcolor="#e58139fc"] ;
28 -> 29 ;
30 [label=<gini = 0.0<br/>samples = 9<br/>value = [9, 0, 0]<br/>class = Favorável>, fillcolor="#e58139ff"] ;
28 -> 30 ;
31 [label=<local_atendimento &le; 3.5<br/>gini = 0.048<br/>samples = 41<br/>value = [40, 0, 1]<br/>class = Favorável>, fillcolor="#e58139f9"] ;
27 -> 31 ;
32 [label=<gini = 0.074<br/>samples = 26<br/>value = [25, 0, 1]<br/>class = Favorável>, fillcolor="#e58139f5"] ;
31 -> 32 ;
33 [label=<gini = 0.0<br/>samples = 15<br/>value = [15, 0, 0]<br/>class = Favorável>, fillcolor="#e58139ff"] ;
31 -> 33 ;
34 [label=<local_atendimento &le; 8.5<br/>gini = 0.087<br/>samples = 22<br/>value = [21, 1, 0]<br/>class = Favorável>, fillcolor="#e58139f3"] ;
26 -> 34 ;
35 [label=<gini = 0.142<br/>samples = 13<br/>value = [12, 1, 0]<br/>class = Favorável>, fillcolor="#e58139ea"] ;
34 -> 35 ;
36 [label=<gini = 0.0<br/>samples = 9<br/>value = [9, 0, 0]<br/>class = Favorável>, fillcolor="#e58139ff"] ;
34 -> 36 ;
37 [label=<local_atendimento &le; 12.0<br/>gini = 0.114<br/>samples = 535<br/>value = [503, 16, 16]<br/>class = Favorável>, fillcolor="#e58139ef"] ;
5 -> 37 ;
38 [label=<local_atendimento &le; 0.5<br/>gini = 0.111<br/>samples = 534<br/>value = [503, 16, 15]<br/>class = Favorável>, fillcolor="#e58139f0"] ;
37 -> 38 ;
39 [label=<classificacao_idade &le; 0.5<br/>gini = 0.153<br/>samples = 356<br/>value = [327, 15, 14]<br/>class = Favorável>, fillcolor="#e58139e9"] ;
38 -> 39 ;
40 [label=<gini = 0.092<br/>samples = 63<br/>value = [60, 1, 2]<br/>class = Favorável>, fillcolor="#e58139f2"] ;
39 -> 40 ;
41 [label=<classificacao_idade &le; 2.5<br/>gini = 0.166<br/>samples = 293<br/>value = [267, 14, 12]<br/>class = Favorável>, fillcolor="#e58139e7"] ;
39 -> 41 ;
42 [label=<classificacao_idade &le; 1.5<br/>gini = 0.152<br/>samples = 185<br/>value = [170, 9, 6]<br/>class = Favorável>, fillcolor="#e58139e9"] ;
41 -> 42 ;
43 [label=<gini = 0.162<br/>samples = 81<br/>value = [74, 3, 4]<br/>class = Favorável>, fillcolor="#e58139e8"] ;
42 -> 43 ;
44 [label=<gini = 0.144<br/>samples = 104<br/>value = [96, 6, 2]<br/>class = Favorável>, fillcolor="#e58139ea"] ;
42 -> 44 ;
45 [label=<gini = 0.188<br/>samples = 108<br/>value = [97, 5, 6]<br/>class = Favorável>, fillcolor="#e58139e4"] ;
41 -> 45 ;
46 [label=<classificacao_idade &le; 2.5<br/>gini = 0.022<br/>samples = 178<br/>value = [176, 1, 1]<br/>class = Favorável>, fillcolor="#e58139fc"] ;
38 -> 46 ;
47 [label=<gini = 0.0<br/>samples = 141<br/>value = [141, 0, 0]<br/>class = Favorável>, fillcolor="#e58139ff"] ;
46 -> 47 ;
48 [label=<local_atendimento &le; 1.5<br/>gini = 0.104<br/>samples = 37<br/>value = [35, 1, 1]<br/>class = Favorável>, fillcolor="#e58139f1"] ;
46 -> 48 ;
49 [label=<gini = 0.185<br/>samples = 20<br/>value = [18, 1, 1]<br/>class = Favorável>, fillcolor="#e58139e4"] ;
48 -> 49 ;
50 [label=<gini = 0.0<br/>samples = 17<br/>value = [17, 0, 0]<br/>class = Favorável>, fillcolor="#e58139ff"] ;
48 -> 50 ;
51 [label=<gini = 0.0<br/>samples = 1<br/>value = [0, 0, 1]<br/>class = Não Exposição>, fillcolor="#8139e5ff"] ;
37 -> 51 ;
52 [label=<mesoregiao &le; 4.5<br/>gini = 0.035<br/>samples = 4926<br/>value = [4839, 55, 32]<br/>class = Favorável>, fillcolor="#e58139fa"] ;
4 -> 52 ;
53 [label=<classificacao_idade &le; 1.5<br/>gini = 0.033<br/>samples = 4636<br/>value = [4558, 48, 30]<br/>class = Favorável>, fillcolor="#e58139fb"] ;
52 -> 53 ;
54 [label=<mesoregiao &le; 1.5<br/>gini = 0.03<br/>samples = 1395<br/>value = [1374, 6, 15]<br/>class = Favorável>, fillcolor="#e58139fb"] ;
53 -> 54 ;
55 [label=<local_atendimento &le; 2.5<br/>gini = 0.049<br/>samples = 437<br/>value = [426, 3, 8]<br/>class = Favorável>, fillcolor="#e58139f8"] ;
54 -> 55 ;
56 [label=<local_atendimento &le; 0.5<br/>gini = 0.046<br/>samples = 387<br/>value = [378, 3, 6]<br/>class = Favorável>, fillcolor="#e58139f9"] ;
55 -> 56 ;
57 [label=<classificacao_idade &le; 0.5<br/>gini = 0.057<br/>samples = 311<br/>value = [302, 3, 6]<br/>class = Favorável>, fillcolor="#e58139f7"] ;
56 -> 57 ;
58 [label=<sexo &le; 0.5<br/>gini = 0.062<br/>samples = 125<br/>value = [121, 1, 3]<br/>class = Favorável>, fillcolor="#e58139f7"] ;
57 -> 58 ;
59 [label=<gini = 0.052<br/>samples = 75<br/>value = [73, 1, 1]<br/>class = Favorável>, fillcolor="#e58139f8"] ;
58 -> 59 ;
60 [label=<gini = 0.077<br/>samples = 50<br/>value = [48, 0, 2]<br/>class = Favorável>, fillcolor="#e58139f4"] ;
58 -> 60 ;
61 [label=<sexo &le; 0.5<br/>gini = 0.053<br/>samples = 186<br/>value = [181, 2, 3]<br/>class = Favorável>, fillcolor="#e58139f8"] ;
57 -> 61 ;
62 [label=<gini = 0.054<br/>samples = 109<br/>value = [106, 1, 2]<br/>class = Favorável>, fillcolor="#e58139f8"] ;
61 -> 62 ;
63 [label=<gini = 0.051<br/>samples = 77<br/>value = [75, 1, 1]<br/>class = Favorável>, fillcolor="#e58139f8"] ;
61 -> 63 ;
64 [label=<gini = 0.0<br/>samples = 76<br/>value = [76, 0, 0]<br/>class = Favorável>, fillcolor="#e58139ff"] ;
56 -> 64 ;
65 [label=<local_atendimento &le; 3.5<br/>gini = 0.077<br/>samples = 50<br/>value = [48, 0, 2]<br/>class = Favorável>, fillcolor="#e58139f4"] ;
55 -> 65 ;
66 [label=<classificacao_idade &le; 0.5<br/>gini = 0.108<br/>samples = 35<br/>value = [33, 0, 2]<br/>class = Favorável>, fillcolor="#e58139f0"] ;
65 -> 66 ;
67 [label=<sexo &le; 0.5<br/>gini = 0.074<br/>samples = 26<br/>value = [25, 0, 1]<br/>class = Favorável>, fillcolor="#e58139f5"] ;
66 -> 67 ;
68 [label=<gini = 0.0<br/>samples = 16<br/>value = [16, 0, 0]<br/>class = Favorável>, fillcolor="#e58139ff"] ;
67 -> 68 ;
69 [label=<gini = 0.18<br/>samples = 10<br/>value = [9, 0, 1]<br/>class = Favorável>, fillcolor="#e58139e3"] ;
67 -> 69 ;
70 [label=<sexo &le; 0.5<br/>gini = 0.198<br/>samples = 9<br/>value = [8, 0, 1]<br/>class = Favorável>, fillcolor="#e58139df"] ;
66 -> 70 ;
71 [label=<gini = 0.32<br/>samples = 5<br/>value = [4, 0, 1]<br/>class = Favorável>, fillcolor="#e58139bf"] ;
70 -> 71 ;
72 [label=<gini = 0.0<br/>samples = 4<br/>value = [4, 0, 0]<br/>class = Favorável>, fillcolor="#e58139ff"] ;
70 -> 72 ;
73 [label=<gini = 0.0<br/>samples = 15<br/>value = [15, 0, 0]<br/>class = Favorável>, fillcolor="#e58139ff"] ;
65 -> 73 ;
74 [label=<mesoregiao &le; 3.5<br/>gini = 0.021<br/>samples = 958<br/>value = [948, 3, 7]<br/>class = Favorável>, fillcolor="#e58139fc"] ;
54 -> 74 ;
75 [label=<mesoregiao &le; 2.5<br/>gini = 0.013<br/>samples = 627<br/>value = [623, 1, 3]<br/>class = Favorável>, fillcolor="#e58139fd"] ;
74 -> 75 ;
76 [label=<local_atendimento &le; 0.5<br/>gini = 0.022<br/>samples = 267<br/>value = [264, 1, 2]<br/>class = Favorável>, fillcolor="#e58139fc"] ;
75 -> 76 ;
77 [label=<classificacao_idade &le; 0.5<br/>gini = 0.021<br/>samples = 191<br/>value = [189, 0, 2]<br/>class = Favorável>, fillcolor="#e58139fc"] ;
76 -> 77 ;
78 [label=<sexo &le; 0.5<br/>gini = 0.029<br/>samples = 68<br/>value = [67, 0, 1]<br/>class = Favorável>, fillcolor="#e58139fb"] ;
77 -> 78 ;
79 [label=<gini = 0.054<br/>samples = 36<br/>value = [35, 0, 1]<br/>class = Favorável>, fillcolor="#e58139f8"] ;
78 -> 79 ;
80 [label=<gini = 0.0<br/>samples = 32<br/>value = [32, 0, 0]<br/>class = Favorável>, fillcolor="#e58139ff"] ;
78 -> 80 ;
81 [label=<sexo &le; 0.5<br/>gini = 0.016<br/>samples = 123<br/>value = [122, 0, 1]<br/>class = Favorável>, fillcolor="#e58139fd"] ;
77 -> 81 ;
82 [label=<gini = 0.0<br/>samples = 71<br/>value = [71, 0, 0]<br/>class = Favorável>, fillcolor="#e58139ff"] ;
81 -> 82 ;
83 [label=<gini = 0.038<br/>samples = 52<br/>value = [51, 0, 1]<br/>class = Favorável>, fillcolor="#e58139fa"] ;
81 -> 83 ;
84 [label=<sexo &le; 0.5<br/>gini = 0.026<br/>samples = 76<br/>value = [75, 1, 0]<br/>class = Favorável>, fillcolor="#e58139fc"] ;
76 -> 84 ;
85 [label=<gini = 0.0<br/>samples = 42<br/>value = [42, 0, 0]<br/>class = Favorável>, fillcolor="#e58139ff"] ;
84 -> 85 ;
86 [label=<local_atendimento &le; 1.5<br/>gini = 0.057<br/>samples = 34<br/>value = [33, 1, 0]<br/>class = Favorável>, fillcolor="#e58139f7"] ;
84 -> 86 ;
87 [label=<classificacao_idade &le; 0.5<br/>gini = 0.124<br/>samples = 15<br/>value = [14, 1, 0]<br/>class = Favorável>, fillcolor="#e58139ed"] ;
86 -> 87 ;
88 [label=<gini = 0.0<br/>samples = 5<br/>value = [5, 0, 0]<br/>class = Favorável>, fillcolor="#e58139ff"] ;
87 -> 88 ;
89 [label=<gini = 0.18<br/>samples = 10<br/>value = [9, 1, 0]<br/>class = Favorável>, fillcolor="#e58139e3"] ;
87 -> 89 ;
90 [label=<gini = 0.0<br/>samples = 19<br/>value = [19, 0, 0]<br/>class = Favorável>, fillcolor="#e58139ff"] ;
86 -> 90 ;
91 [label=<sexo &le; 0.5<br/>gini = 0.006<br/>samples = 360<br/>value = [359, 0, 1]<br/>class = Favorável>, fillcolor="#e58139fe"] ;
75 -> 91 ;
92 [label=<classificacao_idade &le; 0.5<br/>gini = 0.01<br/>samples = 199<br/>value = [198, 0, 1]<br/>class = Favorável>, fillcolor="#e58139fe"] ;
91 -> 92 ;
93 [label=<gini = 0.0<br/>samples = 75<br/>value = [75, 0, 0]<br/>class = Favorável>, fillcolor="#e58139ff"] ;
92 -> 93 ;
94 [label=<local_atendimento &le; 0.5<br/>gini = 0.016<br/>samples = 124<br/>value = [123, 0, 1]<br/>class = Favorável>, fillcolor="#e58139fd"] ;
92 -> 94 ;
95 [label=<gini = 0.021<br/>samples = 95<br/>value = [94, 0, 1]<br/>class = Favorável>, fillcolor="#e58139fc"] ;
94 -> 95 ;
96 [label=<gini = 0.0<br/>samples = 29<br/>value = [29, 0, 0]<br/>class = Favorável>, fillcolor="#e58139ff"] ;
94 -> 96 ;
97 [label=<gini = 0.0<br/>samples = 161<br/>value = [161, 0, 0]<br/>class = Favorável>, fillcolor="#e58139ff"] ;
91 -> 97 ;
98 [label=<sexo &le; 0.5<br/>gini = 0.036<br/>samples = 331<br/>value = [325, 2, 4]<br/>class = Favorável>, fillcolor="#e58139fa"] ;
74 -> 98 ;
99 [label=<classificacao_idade &le; 0.5<br/>gini = 0.012<br/>samples = 164<br/>value = [163, 0, 1]<br/>class = Favorável>, fillcolor="#e58139fd"] ;
98 -> 99 ;
100 [label=<gini = 0.0<br/>samples = 62<br/>value = [62, 0, 0]<br/>class = Favorável>, fillcolor="#e58139ff"] ;
99 -> 100 ;
101 [label=<local_atendimento &le; 0.5<br/>gini = 0.019<br/>samples = 102<br/>value = [101, 0, 1]<br/>class = Favorável>, fillcolor="#e58139fc"] ;
99 -> 101 ;
102 [label=<gini = 0.022<br/>samples = 88<br/>value = [87, 0, 1]<br/>class = Favorável>, fillcolor="#e58139fc"] ;
101 -> 102 ;
103 [label=<gini = 0.0<br/>samples = 14<br/>value = [14, 0, 0]<br/>class = Favorável>, fillcolor="#e58139ff"] ;
101 -> 103 ;
104 [label=<classificacao_idade &le; 0.5<br/>gini = 0.059<br/>samples = 167<br/>value = [162, 2, 3]<br/>class = Favorável>, fillcolor="#e58139f7"] ;
98 -> 104 ;
105 [label=<local_atendimento &le; 0.5<br/>gini = 0.056<br/>samples = 70<br/>value = [68, 0, 2]<br/>class = Favorável>, fillcolor="#e58139f8"] ;
104 -> 105 ;
106 [label=<gini = 0.07<br/>samples = 55<br/>value = [53, 0, 2]<br/>class = Favorável>, fillcolor="#e58139f5"] ;
105 -> 106 ;
107 [label=<gini = 0.0<br/>samples = 15<br/>value = [15, 0, 0]<br/>class = Favorável>, fillcolor="#e58139ff"] ;
105 -> 107 ;
108 [label=<local_atendimento &le; 0.5<br/>gini = 0.06<br/>samples = 97<br/>value = [94, 2, 1]<br/>class = Favorável>, fillcolor="#e58139f7"] ;
104 -> 108 ;
109 [label=<gini = 0.054<br/>samples = 72<br/>value = [70, 1, 1]<br/>class = Favorável>, fillcolor="#e58139f8"] ;
108 -> 109 ;
110 [label=<local_atendimento &le; 1.5<br/>gini = 0.077<br/>samples = 25<br/>value = [24, 1, 0]<br/>class = Favorável>, fillcolor="#e58139f4"] ;
108 -> 110 ;
111 [label=<gini = 0.1<br/>samples = 19<br/>value = [18, 1, 0]<br/>class = Favorável>, fillcolor="#e58139f1"] ;
110 -> 111 ;
112 [label=<gini = 0.0<br/>samples = 6<br/>value = [6, 0, 0]<br/>class = Favorável>, fillcolor="#e58139ff"] ;
110 -> 112 ;
113 [label=<local_atendimento &le; 1.5<br/>gini = 0.035<br/>samples = 3241<br/>value = [3184, 42, 15]<br/>class = Favorável>, fillcolor="#e58139fa"] ;
53 -> 113 ;
114 [label=<local_atendimento &le; 0.5<br/>gini = 0.034<br/>samples = 3125<br/>value = [3071, 42, 12]<br/>class = Favorável>, fillcolor="#e58139fb"] ;
113 -> 114 ;
115 [label=<sexo &le; 0.5<br/>gini = 0.038<br/>samples = 2489<br/>value = [2441, 36, 12]<br/>class = Favorável>, fillcolor="#e58139fa"] ;
114 -> 115 ;
116 [label=<classificacao_idade &le; 2.5<br/>gini = 0.036<br/>samples = 1851<br/>value = [1817, 25, 9]<br/>class = Favorável>, fillcolor="#e58139fa"] ;
115 -> 116 ;
117 [label=<mesoregiao &le; 1.5<br/>gini = 0.039<br/>samples = 859<br/>value = [842, 13, 4]<br/>class = Favorável>, fillcolor="#e58139fa"] ;
116 -> 117 ;
118 [label=<gini = 0.019<br/>samples = 211<br/>value = [209, 2, 0]<br/>class = Favorável>, fillcolor="#e58139fd"] ;
117 -> 118 ;
119 [label=<mesoregiao &le; 2.5<br/>gini = 0.045<br/>samples = 648<br/>value = [633, 11, 4]<br/>class = Favorável>, fillcolor="#e58139f9"] ;
117 -> 119 ;
120 [label=<gini = 0.052<br/>samples = 262<br/>value = [255, 6, 1]<br/>class = Favorável>, fillcolor="#e58139f8"] ;
119 -> 120 ;
121 [label=<mesoregiao &le; 3.5<br/>gini = 0.041<br/>samples = 386<br/>value = [378, 5, 3]<br/>class = Favorável>, fillcolor="#e58139fa"] ;
119 -> 121 ;
122 [label=<gini = 0.046<br/>samples = 215<br/>value = [210, 3, 2]<br/>class = Favorável>, fillcolor="#e58139f9"] ;
121 -> 122 ;
123 [label=<gini = 0.035<br/>samples = 171<br/>value = [168, 2, 1]<br/>class = Favorável>, fillcolor="#e58139fa"] ;
121 -> 123 ;
124 [label=<mesoregiao &le; 1.5<br/>gini = 0.034<br/>samples = 992<br/>value = [975, 12, 5]<br/>class = Favorável>, fillcolor="#e58139fb"] ;
116 -> 124 ;
125 [label=<gini = 0.053<br/>samples = 297<br/>value = [289, 5, 3]<br/>class = Favorável>, fillcolor="#e58139f8"] ;
124 -> 125 ;
126 [label=<mesoregiao &le; 2.5<br/>gini = 0.026<br/>samples = 695<br/>value = [686, 7, 2]<br/>class = Favorável>, fillcolor="#e58139fc"] ;
124 -> 126 ;
127 [label=<gini = 0.018<br/>samples = 224<br/>value = [222, 1, 1]<br/>class = Favorável>, fillcolor="#e58139fd"] ;
126 -> 127 ;
128 [label=<mesoregiao &le; 3.5<br/>gini = 0.029<br/>samples = 471<br/>value = [464, 6, 1]<br/>class = Favorável>, fillcolor="#e58139fb"] ;
126 -> 128 ;
129 [label=<gini = 0.027<br/>samples = 217<br/>value = [214, 3, 0]<br/>class = Favorável>, fillcolor="#e58139fb"] ;
128 -> 129 ;
130 [label=<gini = 0.031<br/>samples = 254<br/>value = [250, 3, 1]<br/>class = Favorável>, fillcolor="#e58139fb"] ;
128 -> 130 ;
131 [label=<classificacao_idade &le; 2.5<br/>gini = 0.043<br/>samples = 638<br/>value = [624, 11, 3]<br/>class = Favorável>, fillcolor="#e58139f9"] ;
115 -> 131 ;
132 [label=<mesoregiao &le; 2.5<br/>gini = 0.029<br/>samples = 337<br/>value = [332, 4, 1]<br/>class = Favorável>, fillcolor="#e58139fb"] ;
131 -> 132 ;
133 [label=<mesoregiao &le; 1.5<br/>gini = 0.012<br/>samples = 165<br/>value = [164, 0, 1]<br/>class = Favorável>, fillcolor="#e58139fd"] ;
132 -> 133 ;
134 [label=<gini = 0.02<br/>samples = 97<br/>value = [96, 0, 1]<br/>class = Favorável>, fillcolor="#e58139fc"] ;
133 -> 134 ;
135 [label=<gini = 0.0<br/>samples = 68<br/>value = [68, 0, 0]<br/>class = Favorável>, fillcolor="#e58139ff"] ;
133 -> 135 ;
136 [label=<mesoregiao &le; 3.5<br/>gini = 0.045<br/>samples = 172<br/>value = [168, 4, 0]<br/>class = Favorável>, fillcolor="#e58139f9"] ;
132 -> 136 ;
137 [label=<gini = 0.044<br/>samples = 89<br/>value = [87, 2, 0]<br/>class = Favorável>, fillcolor="#e58139f9"] ;
136 -> 137 ;
138 [label=<gini = 0.047<br/>samples = 83<br/>value = [81, 2, 0]<br/>class = Favorável>, fillcolor="#e58139f9"] ;
136 -> 138 ;
139 [label=<mesoregiao &le; 2.5<br/>gini = 0.058<br/>samples = 301<br/>value = [292, 7, 2]<br/>class = Favorável>, fillcolor="#e58139f7"] ;
131 -> 139 ;
140 [label=<mesoregiao &le; 1.5<br/>gini = 0.052<br/>samples = 149<br/>value = [145, 4, 0]<br/>class = Favorável>, fillcolor="#e58139f8"] ;
139 -> 140 ;
141 [label=<gini = 0.051<br/>samples = 77<br/>value = [75, 2, 0]<br/>class = Favorável>, fillcolor="#e58139f8"] ;
140 -> 141 ;
142 [label=<gini = 0.054<br/>samples = 72<br/>value = [70, 2, 0]<br/>class = Favorável>, fillcolor="#e58139f8"] ;
140 -> 142 ;
143 [label=<mesoregiao &le; 3.5<br/>gini = 0.064<br/>samples = 152<br/>value = [147, 3, 2]<br/>class = Favorável>, fillcolor="#e58139f6"] ;
139 -> 143 ;
144 [label=<gini = 0.081<br/>samples = 72<br/>value = [69, 1, 2]<br/>class = Favorável>, fillcolor="#e58139f4"] ;
143 -> 144 ;
145 [label=<gini = 0.049<br/>samples = 80<br/>value = [78, 2, 0]<br/>class = Favorável>, fillcolor="#e58139f8"] ;
143 -> 145 ;
146 [label=<classificacao_idade &le; 2.5<br/>gini = 0.019<br/>samples = 636<br/>value = [630, 6, 0]<br/>class = Favorável>, fillcolor="#e58139fd"] ;
114 -> 146 ;
147 [label=<mesoregiao &le; 2.5<br/>gini = 0.012<br/>samples = 332<br/>value = [330, 2, 0]<br/>class = Favorável>, fillcolor="#e58139fd"] ;
146 -> 147 ;
148 [label=<gini = 0.0<br/>samples = 137<br/>value = [137, 0, 0]<br/>class = Favorável>, fillcolor="#e58139ff"] ;
147 -> 148 ;
149 [label=<mesoregiao &le; 3.5<br/>gini = 0.02<br/>samples = 195<br/>value = [193, 2, 0]<br/>class = Favorável>, fillcolor="#e58139fc"] ;
147 -> 149 ;
150 [label=<sexo &le; 0.5<br/>gini = 0.026<br/>samples = 152<br/>value = [150, 2, 0]<br/>class = Favorável>, fillcolor="#e58139fc"] ;
149 -> 150 ;
151 [label=<gini = 0.018<br/>samples = 108<br/>value = [107, 1, 0]<br/>class = Favorável>, fillcolor="#e58139fd"] ;
150 -> 151 ;
152 [label=<gini = 0.044<br/>samples = 44<br/>value = [43, 1, 0]<br/>class = Favorável>, fillcolor="#e58139f9"] ;
150 -> 152 ;
153 [label=<gini = 0.0<br/>samples = 43<br/>value = [43, 0, 0]<br/>class = Favorável>, fillcolor="#e58139ff"] ;
149 -> 153 ;
154 [label=<mesoregiao &le; 1.5<br/>gini = 0.026<br/>samples = 304<br/>value = [300, 4, 0]<br/>class = Favorável>, fillcolor="#e58139fc"] ;
146 -> 154 ;
155 [label=<sexo &le; 0.5<br/>gini = 0.067<br/>samples = 58<br/>value = [56, 2, 0]<br/>class = Favorável>, fillcolor="#e58139f6"] ;
154 -> 155 ;
156 [label=<gini = 0.087<br/>samples = 44<br/>value = [42, 2, 0]<br/>class = Favorável>, fillcolor="#e58139f3"] ;
155 -> 156 ;
157 [label=<gini = 0.0<br/>samples = 14<br/>value = [14, 0, 0]<br/>class = Favorável>, fillcolor="#e58139ff"] ;
155 -> 157 ;
158 [label=<mesoregiao &le; 2.5<br/>gini = 0.016<br/>samples = 246<br/>value = [244, 2, 0]<br/>class = Favorável>, fillcolor="#e58139fd"] ;
154 -> 158 ;
159 [label=<gini = 0.0<br/>samples = 54<br/>value = [54, 0, 0]<br/>class = Favorável>, fillcolor="#e58139ff"] ;
158 -> 159 ;
160 [label=<sexo &le; 0.5<br/>gini = 0.021<br/>samples = 192<br/>value = [190, 2, 0]<br/>class = Favorável>, fillcolor="#e58139fc"] ;
158 -> 160 ;
161 [label=<mesoregiao &le; 3.5<br/>gini = 0.026<br/>samples = 150<br/>value = [148, 2, 0]<br/>class = Favorável>, fillcolor="#e58139fc"] ;
160 -> 161 ;
162 [label=<gini = 0.021<br/>samples = 93<br/>value = [92, 1, 0]<br/>class = Favorável>, fillcolor="#e58139fc"] ;
161 -> 162 ;
163 [label=<gini = 0.034<br/>samples = 57<br/>value = [56, 1, 0]<br/>class = Favorável>, fillcolor="#e58139fa"] ;
161 -> 163 ;
164 [label=<gini = 0.0<br/>samples = 42<br/>value = [42, 0, 0]<br/>class = Favorável>, fillcolor="#e58139ff"] ;
160 -> 164 ;
165 [label=<mesoregiao &le; 1.5<br/>gini = 0.05<br/>samples = 116<br/>value = [113, 0, 3]<br/>class = Favorável>, fillcolor="#e58139f8"] ;
113 -> 165 ;
166 [label=<sexo &le; 0.5<br/>gini = 0.142<br/>samples = 39<br/>value = [36, 0, 3]<br/>class = Favorável>, fillcolor="#e58139ea"] ;
165 -> 166 ;
167 [label=<classificacao_idade &le; 2.5<br/>gini = 0.077<br/>samples = 25<br/>value = [24, 0, 1]<br/>class = Favorável>, fillcolor="#e58139f4"] ;
166 -> 167 ;
168 [label=<gini = 0.0<br/>samples = 9<br/>value = [9, 0, 0]<br/>class = Favorável>, fillcolor="#e58139ff"] ;
167 -> 168 ;
169 [label=<local_atendimento &le; 2.5<br/>gini = 0.117<br/>samples = 16<br/>value = [15, 0, 1]<br/>class = Favorável>, fillcolor="#e58139ee"] ;
167 -> 169 ;
170 [label=<gini = 0.0<br/>samples = 6<br/>value = [6, 0, 0]<br/>class = Favorável>, fillcolor="#e58139ff"] ;
169 -> 170 ;
171 [label=<local_atendimento &le; 3.5<br/>gini = 0.18<br/>samples = 10<br/>value = [9, 0, 1]<br/>class = Favorável>, fillcolor="#e58139e3"] ;
169 -> 171 ;
172 [label=<gini = 0.375<br/>samples = 4<br/>value = [3, 0, 1]<br/>class = Favorável>, fillcolor="#e58139aa"] ;
171 -> 172 ;
173 [label=<gini = 0.0<br/>samples = 6<br/>value = [6, 0, 0]<br/>class = Favorável>, fillcolor="#e58139ff"] ;
171 -> 173 ;
174 [label=<classificacao_idade &le; 2.5<br/>gini = 0.245<br/>samples = 14<br/>value = [12, 0, 2]<br/>class = Favorável>, fillcolor="#e58139d4"] ;
166 -> 174 ;
175 [label=<local_atendimento &le; 5.0<br/>gini = 0.408<br/>samples = 7<br/>value = [5, 0, 2]<br/>class = Favorável>, fillcolor="#e5813999"] ;
174 -> 175 ;
176 [label=<local_atendimento &le; 3.0<br/>gini = 0.32<br/>samples = 5<br/>value = [4, 0, 1]<br/>class = Favorável>, fillcolor="#e58139bf"] ;
175 -> 176 ;
177 [label=<gini = 0.375<br/>samples = 4<br/>value = [3, 0, 1]<br/>class = Favorável>, fillcolor="#e58139aa"] ;
176 -> 177 ;
178 [label=<gini = 0.0<br/>samples = 1<br/>value = [1, 0, 0]<br/>class = Favorável>, fillcolor="#e58139ff"] ;
176 -> 178 ;
179 [label=<local_atendimento &le; 6.5<br/>gini = 0.5<br/>samples = 2<br/>value = [1, 0, 1]<br/>class = Favorável>, fillcolor="#e5813900"] ;
175 -> 179 ;
180 [label=<gini = 0.0<br/>samples = 1<br/>value = [0, 0, 1]<br/>class = Não Exposição>, fillcolor="#8139e5ff"] ;
179 -> 180 ;
181 [label=<gini = 0.0<br/>samples = 1<br/>value = [1, 0, 0]<br/>class = Favorável>, fillcolor="#e58139ff"] ;
179 -> 181 ;
182 [label=<gini = 0.0<br/>samples = 7<br/>value = [7, 0, 0]<br/>class = Favorável>, fillcolor="#e58139ff"] ;
174 -> 182 ;
183 [label=<gini = 0.0<br/>samples = 77<br/>value = [77, 0, 0]<br/>class = Favorável>, fillcolor="#e58139ff"] ;
165 -> 183 ;
184 [label=<local_atendimento &le; 0.5<br/>gini = 0.06<br/>samples = 290<br/>value = [281, 7, 2]<br/>class = Favorável>, fillcolor="#e58139f7"] ;
52 -> 184 ;
185 [label=<classificacao_idade &le; 0.5<br/>gini = 0.071<br/>samples = 245<br/>value = [236, 7, 2]<br/>class = Favorável>, fillcolor="#e58139f5"] ;
184 -> 185 ;
186 [label=<gini = 0.0<br/>samples = 34<br/>value = [34, 0, 0]<br/>class = Favorável>, fillcolor="#e58139ff"] ;
185 -> 186 ;
187 [label=<classificacao_idade &le; 1.5<br/>gini = 0.082<br/>samples = 211<br/>value = [202, 7, 2]<br/>class = Favorável>, fillcolor="#e58139f4"] ;
185 -> 187 ;
188 [label=<sexo &le; 0.5<br/>gini = 0.122<br/>samples = 46<br/>value = [43, 3, 0]<br/>class = Favorável>, fillcolor="#e58139ed"] ;
187 -> 188 ;
189 [label=<gini = 0.121<br/>samples = 31<br/>value = [29, 2, 0]<br/>class = Favorável>, fillcolor="#e58139ed"] ;
188 -> 189 ;
190 [label=<gini = 0.124<br/>samples = 15<br/>value = [14, 1, 0]<br/>class = Favorável>, fillcolor="#e58139ed"] ;
188 -> 190 ;
191 [label=<sexo &le; 0.5<br/>gini = 0.071<br/>samples = 165<br/>value = [159, 4, 2]<br/>class = Favorável>, fillcolor="#e58139f5"] ;
187 -> 191 ;
192 [label=<classificacao_idade &le; 2.5<br/>gini = 0.092<br/>samples = 125<br/>value = [119, 4, 2]<br/>class = Favorável>, fillcolor="#e58139f2"] ;
191 -> 192 ;
193 [label=<gini = 0.095<br/>samples = 61<br/>value = [58, 2, 1]<br/>class = Favorável>, fillcolor="#e58139f2"] ;
192 -> 193 ;
194 [label=<gini = 0.09<br/>samples = 64<br/>value = [61, 2, 1]<br/>class = Favorável>, fillcolor="#e58139f3"] ;
192 -> 194 ;
195 [label=<gini = 0.0<br/>samples = 40<br/>value = [40, 0, 0]<br/>class = Favorável>, fillcolor="#e58139ff"] ;
191 -> 195 ;
196 [label=<gini = 0.0<br/>samples = 45<br/>value = [45, 0, 0]<br/>class = Favorável>, fillcolor="#e58139ff"] ;
184 -> 196 ;
197 [label=<sexo &le; 0.5<br/>gini = 0.17<br/>samples = 241<br/>value = [219, 8, 14]<br/>class = Favorável>, fillcolor="#e58139e6"] ;
3 -> 197 ;
198 [label=<mesoregiao &le; 0.5<br/>gini = 0.096<br/>samples = 161<br/>value = [153, 3, 5]<br/>class = Favorável>, fillcolor="#e58139f2"] ;
197 -> 198 ;
199 [label=<local_atendimento &le; 0.5<br/>gini = 0.174<br/>samples = 64<br/>value = [58, 2, 4]<br/>class = Favorável>, fillcolor="#e58139e6"] ;
198 -> 199 ;
200 [label=<gini = 0.237<br/>samples = 38<br/>value = [33, 2, 3]<br/>class = Favorável>, fillcolor="#e58139db"] ;
199 -> 200 ;
201 [label=<local_atendimento &le; 7.0<br/>gini = 0.074<br/>samples = 26<br/>value = [25, 0, 1]<br/>class = Favorável>, fillcolor="#e58139f5"] ;
199 -> 201 ;
202 [label=<gini = 0.0<br/>samples = 20<br/>value = [20, 0, 0]<br/>class = Favorável>, fillcolor="#e58139ff"] ;
201 -> 202 ;
203 [label=<local_atendimento &le; 9.0<br/>gini = 0.278<br/>samples = 6<br/>value = [5, 0, 1]<br/>class = Favorável>, fillcolor="#e58139cc"] ;
201 -> 203 ;
204 [label=<gini = 0.444<br/>samples = 3<br/>value = [2, 0, 1]<br/>class = Favorável>, fillcolor="#e581397f"] ;
203 -> 204 ;
205 [label=<gini = 0.0<br/>samples = 3<br/>value = [3, 0, 0]<br/>class = Favorável>, fillcolor="#e58139ff"] ;
203 -> 205 ;
206 [label=<mesoregiao &le; 4.5<br/>gini = 0.041<br/>samples = 97<br/>value = [95, 1, 1]<br/>class = Favorável>, fillcolor="#e58139fa"] ;
198 -> 206 ;
207 [label=<local_atendimento &le; 0.5<br/>gini = 0.022<br/>samples = 88<br/>value = [87, 0, 1]<br/>class = Favorável>, fillcolor="#e58139fc"] ;
206 -> 207 ;
208 [label=<gini = 0.0<br/>samples = 63<br/>value = [63, 0, 0]<br/>class = Favorável>, fillcolor="#e58139ff"] ;
207 -> 208 ;
209 [label=<mesoregiao &le; 2.5<br/>gini = 0.077<br/>samples = 25<br/>value = [24, 0, 1]<br/>class = Favorável>, fillcolor="#e58139f4"] ;
207 -> 209 ;
210 [label=<mesoregiao &le; 1.5<br/>gini = 0.18<br/>samples = 10<br/>value = [9, 0, 1]<br/>class = Favorável>, fillcolor="#e58139e3"] ;
209 -> 210 ;
211 [label=<gini = 0.0<br/>samples = 5<br/>value = [5, 0, 0]<br/>class = Favorável>, fillcolor="#e58139ff"] ;
210 -> 211 ;
212 [label=<local_atendimento &le; 1.5<br/>gini = 0.32<br/>samples = 5<br/>value = [4, 0, 1]<br/>class = Favorável>, fillcolor="#e58139bf"] ;
210 -> 212 ;
213 [label=<gini = 0.444<br/>samples = 3<br/>value = [2, 0, 1]<br/>class = Favorável>, fillcolor="#e581397f"] ;
212 -> 213 ;
214 [label=<gini = 0.0<br/>samples = 2<br/>value = [2, 0, 0]<br/>class = Favorável>, fillcolor="#e58139ff"] ;
212 -> 214 ;
215 [label=<gini = 0.0<br/>samples = 15<br/>value = [15, 0, 0]<br/>class = Favorável>, fillcolor="#e58139ff"] ;
209 -> 215 ;
216 [label=<local_atendimento &le; 1.5<br/>gini = 0.198<br/>samples = 9<br/>value = [8, 1, 0]<br/>class = Favorável>, fillcolor="#e58139df"] ;
206 -> 216 ;
217 [label=<gini = 0.219<br/>samples = 8<br/>value = [7, 1, 0]<br/>class = Favorável>, fillcolor="#e58139db"] ;
216 -> 217 ;
218 [label=<gini = 0.0<br/>samples = 1<br/>value = [1, 0, 0]<br/>class = Favorável>, fillcolor="#e58139ff"] ;
216 -> 218 ;
219 [label=<local_atendimento &le; 0.5<br/>gini = 0.303<br/>samples = 80<br/>value = [66, 5, 9]<br/>class = Favorável>, fillcolor="#e58139cd"] ;
197 -> 219 ;
220 [label=<mesoregiao &le; 0.5<br/>gini = 0.359<br/>samples = 60<br/>value = [47, 4, 9]<br/>class = Favorável>, fillcolor="#e58139be"] ;
219 -> 220 ;
221 [label=<gini = 0.418<br/>samples = 15<br/>value = [11, 3, 1]<br/>class = Favorável>, fillcolor="#e58139aa"] ;
220 -> 221 ;
222 [label=<mesoregiao &le; 4.5<br/>gini = 0.328<br/>samples = 45<br/>value = [36, 1, 8]<br/>class = Favorável>, fillcolor="#e58139c1"] ;
220 -> 222 ;
223 [label=<mesoregiao &le; 1.5<br/>gini = 0.34<br/>samples = 43<br/>value = [34, 1, 8]<br/>class = Favorável>, fillcolor="#e58139bd"] ;
222 -> 223 ;
224 [label=<gini = 0.357<br/>samples = 14<br/>value = [11, 1, 2]<br/>class = Favorável>, fillcolor="#e58139bf"] ;
223 -> 224 ;
225 [label=<mesoregiao &le; 2.5<br/>gini = 0.328<br/>samples = 29<br/>value = [23, 0, 6]<br/>class = Favorável>, fillcolor="#e58139bc"] ;
223 -> 225 ;
226 [label=<gini = 0.375<br/>samples = 12<br/>value = [9, 0, 3]<br/>class = Favorável>, fillcolor="#e58139aa"] ;
225 -> 226 ;
227 [label=<mesoregiao &le; 3.5<br/>gini = 0.291<br/>samples = 17<br/>value = [14, 0, 3]<br/>class = Favorável>, fillcolor="#e58139c8"] ;
225 -> 227 ;
228 [label=<gini = 0.278<br/>samples = 6<br/>value = [5, 0, 1]<br/>class = Favorável>, fillcolor="#e58139cc"] ;
227 -> 228 ;
229 [label=<gini = 0.298<br/>samples = 11<br/>value = [9, 0, 2]<br/>class = Favorável>, fillcolor="#e58139c6"] ;
227 -> 229 ;
230 [label=<gini = 0.0<br/>samples = 2<br/>value = [2, 0, 0]<br/>class = Favorável>, fillcolor="#e58139ff"] ;
222 -> 230 ;
231 [label=<mesoregiao &le; 4.5<br/>gini = 0.095<br/>samples = 20<br/>value = [19, 1, 0]<br/>class = Favorável>, fillcolor="#e58139f2"] ;
219 -> 231 ;
232 [label=<gini = 0.0<br/>samples = 19<br/>value = [19, 0, 0]<br/>class = Favorável>, fillcolor="#e58139ff"] ;
231 -> 232 ;
233 [label=<gini = 0.0<br/>samples = 1<br/>value = [0, 1, 0]<br/>class = Desfavorável>, fillcolor="#39e581ff"] ;
231 -> 233 ;
234 [label=<classificacao_idade &le; 0.5<br/>gini = 0.066<br/>samples = 8005<br/>value = [7735, 121, 149]<br/>class = Favorável>, fillcolor="#e58139f6"] ;
2 -> 234 ;
235 [label=<mesoregiao &le; 3.5<br/>gini = 0.109<br/>samples = 294<br/>value = [277, 1, 16]<br/>class = Favorável>, fillcolor="#e58139ef"] ;
234 -> 235 ;
236 [label=<local_atendimento &le; 0.5<br/>gini = 0.099<br/>samples = 251<br/>value = [238, 1, 12]<br/>class = Favorável>, fillcolor="#e58139f1"] ;
235 -> 236 ;
237 [label=<mesoregiao &le; 2.5<br/>gini = 0.082<br/>samples = 165<br/>value = [158, 1, 6]<br/>class = Favorável>, fillcolor="#e58139f4"] ;
236 -> 237 ;
238 [label=<sexo &le; 0.5<br/>gini = 0.068<br/>samples = 142<br/>value = [137, 1, 4]<br/>class = Favorável>, fillcolor="#e58139f6"] ;
237 -> 238 ;
239 [label=<mesoregiao &le; 1.5<br/>gini = 0.106<br/>samples = 54<br/>value = [51, 1, 2]<br/>class = Favorável>, fillcolor="#e58139f0"] ;
238 -> 239 ;
240 [label=<mesoregiao &le; 0.5<br/>gini = 0.053<br/>samples = 37<br/>value = [36, 0, 1]<br/>class = Favorável>, fillcolor="#e58139f8"] ;
239 -> 240 ;
241 [label=<gini = 0.0<br/>samples = 16<br/>value = [16, 0, 0]<br/>class = Favorável>, fillcolor="#e58139ff"] ;
240 -> 241 ;
242 [label=<gini = 0.091<br/>samples = 21<br/>value = [20, 0, 1]<br/>class = Favorável>, fillcolor="#e58139f2"] ;
240 -> 242 ;
243 [label=<gini = 0.215<br/>samples = 17<br/>value = [15, 1, 1]<br/>class = Favorável>, fillcolor="#e58139df"] ;
239 -> 243 ;
244 [label=<mesoregiao &le; 0.5<br/>gini = 0.044<br/>samples = 88<br/>value = [86, 0, 2]<br/>class = Favorável>, fillcolor="#e58139f9"] ;
238 -> 244 ;
245 [label=<gini = 0.117<br/>samples = 16<br/>value = [15, 0, 1]<br/>class = Favorável>, fillcolor="#e58139ee"] ;
244 -> 245 ;
246 [label=<mesoregiao &le; 1.5<br/>gini = 0.027<br/>samples = 72<br/>value = [71, 0, 1]<br/>class = Favorável>, fillcolor="#e58139fb"] ;
244 -> 246 ;
247 [label=<gini = 0.048<br/>samples = 41<br/>value = [40, 0, 1]<br/>class = Favorável>, fillcolor="#e58139f9"] ;
246 -> 247 ;
248 [label=<gini = 0.0<br/>samples = 31<br/>value = [31, 0, 0]<br/>class = Favorável>, fillcolor="#e58139ff"] ;
246 -> 248 ;
249 [label=<sexo &le; 0.5<br/>gini = 0.159<br/>samples = 23<br/>value = [21, 0, 2]<br/>class = Favorável>, fillcolor="#e58139e7"] ;
237 -> 249 ;
250 [label=<gini = 0.18<br/>samples = 10<br/>value = [9, 0, 1]<br/>class = Favorável>, fillcolor="#e58139e3"] ;
249 -> 250 ;
251 [label=<gini = 0.142<br/>samples = 13<br/>value = [12, 0, 1]<br/>class = Favorável>, fillcolor="#e58139ea"] ;
249 -> 251 ;
252 [label=<mesoregiao &le; 0.5<br/>gini = 0.13<br/>samples = 86<br/>value = [80, 0, 6]<br/>class = Favorável>, fillcolor="#e58139ec"] ;
236 -> 252 ;
253 [label=<local_atendimento &le; 2.5<br/>gini = 0.198<br/>samples = 36<br/>value = [32, 0, 4]<br/>class = Favorável>, fillcolor="#e58139df"] ;
252 -> 253 ;
254 [label=<sexo &le; 0.5<br/>gini = 0.337<br/>samples = 14<br/>value = [11, 0, 3]<br/>class = Favorável>, fillcolor="#e58139b9"] ;
253 -> 254 ;
255 [label=<local_atendimento &le; 1.5<br/>gini = 0.278<br/>samples = 6<br/>value = [5, 0, 1]<br/>class = Favorável>, fillcolor="#e58139cc"] ;
254 -> 255 ;
256 [label=<gini = 0.0<br/>samples = 3<br/>value = [3, 0, 0]<br/>class = Favorável>, fillcolor="#e58139ff"] ;
255 -> 256 ;
257 [label=<gini = 0.444<br/>samples = 3<br/>value = [2, 0, 1]<br/>class = Favorável>, fillcolor="#e581397f"] ;
255 -> 257 ;
258 [label=<local_atendimento &le; 1.5<br/>gini = 0.375<br/>samples = 8<br/>value = [6, 0, 2]<br/>class = Favorável>, fillcolor="#e58139aa"] ;
254 -> 258 ;
259 [label=<gini = 0.5<br/>samples = 2<br/>value = [1, 0, 1]<br/>class = Favorável>, fillcolor="#e5813900"] ;
258 -> 259 ;
260 [label=<gini = 0.278<br/>samples = 6<br/>value = [5, 0, 1]<br/>class = Favorável>, fillcolor="#e58139cc"] ;
258 -> 260 ;
261 [label=<sexo &le; 0.5<br/>gini = 0.087<br/>samples = 22<br/>value = [21, 0, 1]<br/>class = Favorável>, fillcolor="#e58139f3"] ;
253 -> 261 ;
262 [label=<gini = 0.0<br/>samples = 5<br/>value = [5, 0, 0]<br/>class = Favorável>, fillcolor="#e58139ff"] ;
261 -> 262 ;
263 [label=<local_atendimento &le; 5.0<br/>gini = 0.111<br/>samples = 17<br/>value = [16, 0, 1]<br/>class = Favorável>, fillcolor="#e58139ef"] ;
261 -> 263 ;
264 [label=<gini = 0.133<br/>samples = 14<br/>value = [13, 0, 1]<br/>class = Favorável>, fillcolor="#e58139eb"] ;
263 -> 264 ;
265 [label=<gini = 0.0<br/>samples = 3<br/>value = [3, 0, 0]<br/>class = Favorável>, fillcolor="#e58139ff"] ;
263 -> 265 ;
266 [label=<local_atendimento &le; 2.5<br/>gini = 0.077<br/>samples = 50<br/>value = [48, 0, 2]<br/>class = Favorável>, fillcolor="#e58139f4"] ;
252 -> 266 ;
267 [label=<sexo &le; 0.5<br/>gini = 0.044<br/>samples = 44<br/>value = [43, 0, 1]<br/>class = Favorável>, fillcolor="#e58139f9"] ;
266 -> 267 ;
268 [label=<mesoregiao &le; 1.5<br/>gini = 0.111<br/>samples = 17<br/>value = [16, 0, 1]<br/>class = Favorável>, fillcolor="#e58139ef"] ;
267 -> 268 ;
269 [label=<local_atendimento &le; 1.5<br/>gini = 0.245<br/>samples = 7<br/>value = [6, 0, 1]<br/>class = Favorável>, fillcolor="#e58139d4"] ;
268 -> 269 ;
270 [label=<gini = 0.32<br/>samples = 5<br/>value = [4, 0, 1]<br/>class = Favorável>, fillcolor="#e58139bf"] ;
269 -> 270 ;
271 [label=<gini = 0.0<br/>samples = 2<br/>value = [2, 0, 0]<br/>class = Favorável>, fillcolor="#e58139ff"] ;
269 -> 271 ;
272 [label=<gini = 0.0<br/>samples = 10<br/>value = [10, 0, 0]<br/>class = Favorável>, fillcolor="#e58139ff"] ;
268 -> 272 ;
273 [label=<gini = 0.0<br/>samples = 27<br/>value = [27, 0, 0]<br/>class = Favorável>, fillcolor="#e58139ff"] ;
267 -> 273 ;
274 [label=<sexo &le; 0.5<br/>gini = 0.278<br/>samples = 6<br/>value = [5, 0, 1]<br/>class = Favorável>, fillcolor="#e58139cc"] ;
266 -> 274 ;
275 [label=<gini = 0.0<br/>samples = 4<br/>value = [4, 0, 0]<br/>class = Favorável>, fillcolor="#e58139ff"] ;
274 -> 275 ;
276 [label=<mesoregiao &le; 2.5<br/>gini = 0.5<br/>samples = 2<br/>value = [1, 0, 1]<br/>class = Favorável>, fillcolor="#e5813900"] ;
274 -> 276 ;
277 [label=<gini = 0.0<br/>samples = 1<br/>value = [0, 0, 1]<br/>class = Não Exposição>, fillcolor="#8139e5ff"] ;
276 -> 277 ;
278 [label=<gini = 0.0<br/>samples = 1<br/>value = [1, 0, 0]<br/>class = Favorável>, fillcolor="#e58139ff"] ;
276 -> 278 ;
279 [label=<local_atendimento &le; 1.5<br/>gini = 0.169<br/>samples = 43<br/>value = [39, 0, 4]<br/>class = Favorável>, fillcolor="#e58139e5"] ;
235 -> 279 ;
280 [label=<local_atendimento &le; 0.5<br/>gini = 0.149<br/>samples = 37<br/>value = [34, 0, 3]<br/>class = Favorável>, fillcolor="#e58139e9"] ;
279 -> 280 ;
281 [label=<mesoregiao &le; 4.5<br/>gini = 0.161<br/>samples = 34<br/>value = [31, 0, 3]<br/>class = Favorável>, fillcolor="#e58139e6"] ;
280 -> 281 ;
282 [label=<sexo &le; 0.5<br/>gini = 0.147<br/>samples = 25<br/>value = [23, 0, 2]<br/>class = Favorável>, fillcolor="#e58139e9"] ;
281 -> 282 ;
283 [label=<gini = 0.0<br/>samples = 8<br/>value = [8, 0, 0]<br/>class = Favorável>, fillcolor="#e58139ff"] ;
282 -> 283 ;
284 [label=<gini = 0.208<br/>samples = 17<br/>value = [15, 0, 2]<br/>class = Favorável>, fillcolor="#e58139dd"] ;
282 -> 284 ;
285 [label=<sexo &le; 0.5<br/>gini = 0.198<br/>samples = 9<br/>value = [8, 0, 1]<br/>class = Favorável>, fillcolor="#e58139df"] ;
281 -> 285 ;
286 [label=<gini = 0.375<br/>samples = 4<br/>value = [3, 0, 1]<br/>class = Favorável>, fillcolor="#e58139aa"] ;
285 -> 286 ;
287 [label=<gini = 0.0<br/>samples = 5<br/>value = [5, 0, 0]<br/>class = Favorável>, fillcolor="#e58139ff"] ;
285 -> 287 ;
288 [label=<gini = 0.0<br/>samples = 3<br/>value = [3, 0, 0]<br/>class = Favorável>, fillcolor="#e58139ff"] ;
280 -> 288 ;
289 [label=<sexo &le; 0.5<br/>gini = 0.278<br/>samples = 6<br/>value = [5, 0, 1]<br/>class = Favorável>, fillcolor="#e58139cc"] ;
279 -> 289 ;
290 [label=<mesoregiao &le; 4.5<br/>gini = 0.444<br/>samples = 3<br/>value = [2, 0, 1]<br/>class = Favorável>, fillcolor="#e581397f"] ;
289 -> 290 ;
291 [label=<local_atendimento &le; 2.5<br/>gini = 0.5<br/>samples = 2<br/>value = [1, 0, 1]<br/>class = Favorável>, fillcolor="#e5813900"] ;
290 -> 291 ;
292 [label=<gini = 0.0<br/>samples = 1<br/>value = [0, 0, 1]<br/>class = Não Exposição>, fillcolor="#8139e5ff"] ;
291 -> 292 ;
293 [label=<gini = 0.0<br/>samples = 1<br/>value = [1, 0, 0]<br/>class = Favorável>, fillcolor="#e58139ff"] ;
291 -> 293 ;
294 [label=<gini = 0.0<br/>samples = 1<br/>value = [1, 0, 0]<br/>class = Favorável>, fillcolor="#e58139ff"] ;
290 -> 294 ;
295 [label=<gini = 0.0<br/>samples = 3<br/>value = [3, 0, 0]<br/>class = Favorável>, fillcolor="#e58139ff"] ;
289 -> 295 ;
296 [label=<mesoregiao &le; 0.5<br/>gini = 0.064<br/>samples = 7711<br/>value = [7458, 120, 133]<br/>class = Favorável>, fillcolor="#e58139f6"] ;
234 -> 296 ;
297 [label=<classificacao_idade &le; 1.5<br/>gini = 0.043<br/>samples = 1366<br/>value = [1336, 9, 21]<br/>class = Favorável>, fillcolor="#e58139f9"] ;
296 -> 297 ;
298 [label=<sexo &le; 0.5<br/>gini = 0.017<br/>samples = 235<br/>value = [233, 0, 2]<br/>class = Favorável>, fillcolor="#e58139fd"] ;
297 -> 298 ;
299 [label=<local_atendimento &le; 0.5<br/>gini = 0.04<br/>samples = 99<br/>value = [97, 0, 2]<br/>class = Favorável>, fillcolor="#e58139fa"] ;
298 -> 299 ;
300 [label=<gini = 0.0<br/>samples = 54<br/>value = [54, 0, 0]<br/>class = Favorável>, fillcolor="#e58139ff"] ;
299 -> 300 ;
301 [label=<local_atendimento &le; 1.5<br/>gini = 0.085<br/>samples = 45<br/>value = [43, 0, 2]<br/>class = Favorável>, fillcolor="#e58139f3"] ;
299 -> 301 ;
302 [label=<gini = 0.153<br/>samples = 12<br/>value = [11, 0, 1]<br/>class = Favorável>, fillcolor="#e58139e8"] ;
301 -> 302 ;
303 [label=<local_atendimento &le; 3.5<br/>gini = 0.059<br/>samples = 33<br/>value = [32, 0, 1]<br/>class = Favorável>, fillcolor="#e58139f7"] ;
301 -> 303 ;
304 [label=<local_atendimento &le; 2.5<br/>gini = 0.071<br/>samples = 27<br/>value = [26, 0, 1]<br/>class = Favorável>, fillcolor="#e58139f5"] ;
303 -> 304 ;
305 [label=<gini = 0.0<br/>samples = 5<br/>value = [5, 0, 0]<br/>class = Favorável>, fillcolor="#e58139ff"] ;
304 -> 305 ;
306 [label=<gini = 0.087<br/>samples = 22<br/>value = [21, 0, 1]<br/>class = Favorável>, fillcolor="#e58139f3"] ;
304 -> 306 ;
307 [label=<gini = 0.0<br/>samples = 6<br/>value = [6, 0, 0]<br/>class = Favorável>, fillcolor="#e58139ff"] ;
303 -> 307 ;
308 [label=<gini = 0.0<br/>samples = 136<br/>value = [136, 0, 0]<br/>class = Favorável>, fillcolor="#e58139ff"] ;
298 -> 308 ;
309 [label=<local_atendimento &le; 0.5<br/>gini = 0.049<br/>samples = 1131<br/>value = [1103, 9, 19]<br/>class = Favorável>, fillcolor="#e58139f9"] ;
297 -> 309 ;
310 [label=<classificacao_idade &le; 2.5<br/>gini = 0.046<br/>samples = 594<br/>value = [580, 2, 12]<br/>class = Favorável>, fillcolor="#e58139f9"] ;
309 -> 310 ;
311 [label=<sexo &le; 0.5<br/>gini = 0.011<br/>samples = 178<br/>value = [177, 0, 1]<br/>class = Favorável>, fillcolor="#e58139fe"] ;
310 -> 311 ;
312 [label=<gini = 0.028<br/>samples = 71<br/>value = [70, 0, 1]<br/>class = Favorável>, fillcolor="#e58139fb"] ;
311 -> 312 ;
313 [label=<gini = 0.0<br/>samples = 107<br/>value = [107, 0, 0]<br/>class = Favorável>, fillcolor="#e58139ff"] ;
311 -> 313 ;
314 [label=<sexo &le; 0.5<br/>gini = 0.061<br/>samples = 416<br/>value = [403, 2, 11]<br/>class = Favorável>, fillcolor="#e58139f7"] ;
310 -> 314 ;
315 [label=<classificacao_idade &le; 3.5<br/>gini = 0.074<br/>samples = 182<br/>value = [175, 1, 6]<br/>class = Favorável>, fillcolor="#e58139f5"] ;
314 -> 315 ;
316 [label=<gini = 0.078<br/>samples = 148<br/>value = [142, 1, 5]<br/>class = Favorável>, fillcolor="#e58139f4"] ;
315 -> 316 ;
317 [label=<gini = 0.057<br/>samples = 34<br/>value = [33, 0, 1]<br/>class = Favorável>, fillcolor="#e58139f7"] ;
315 -> 317 ;
318 [label=<classificacao_idade &le; 3.5<br/>gini = 0.05<br/>samples = 234<br/>value = [228, 1, 5]<br/>class = Favorável>, fillcolor="#e58139f8"] ;
314 -> 318 ;
319 [label=<gini = 0.045<br/>samples = 175<br/>value = [171, 1, 3]<br/>class = Favorável>, fillcolor="#e58139f9"] ;
318 -> 319 ;
320 [label=<gini = 0.065<br/>samples = 59<br/>value = [57, 0, 2]<br/>class = Favorável>, fillcolor="#e58139f6"] ;
318 -> 320 ;
321 [label=<classificacao_idade &le; 3.5<br/>gini = 0.051<br/>samples = 537<br/>value = [523, 7, 7]<br/>class = Favorável>, fillcolor="#e58139f8"] ;
309 -> 321 ;
322 [label=<classificacao_idade &le; 2.5<br/>gini = 0.06<br/>samples = 456<br/>value = [442, 7, 7]<br/>class = Favorável>, fillcolor="#e58139f7"] ;
321 -> 322 ;
323 [label=<local_atendimento &le; 4.5<br/>gini = 0.082<br/>samples = 141<br/>value = [135, 3, 3]<br/>class = Favorável>, fillcolor="#e58139f4"] ;
322 -> 323 ;
324 [label=<local_atendimento &le; 3.5<br/>gini = 0.093<br/>samples = 124<br/>value = [118, 3, 3]<br/>class = Favorável>, fillcolor="#e58139f2"] ;
323 -> 324 ;
325 [label=<local_atendimento &le; 1.5<br/>gini = 0.081<br/>samples = 120<br/>value = [115, 2, 3]<br/>class = Favorável>, fillcolor="#e58139f4"] ;
324 -> 325 ;
326 [label=<sexo &le; 0.5<br/>gini = 0.106<br/>samples = 36<br/>value = [34, 1, 1]<br/>class = Favorável>, fillcolor="#e58139f0"] ;
325 -> 326 ;
327 [label=<gini = 0.0<br/>samples = 11<br/>value = [11, 0, 0]<br/>class = Favorável>, fillcolor="#e58139ff"] ;
326 -> 327 ;
328 [label=<gini = 0.15<br/>samples = 25<br/>value = [23, 1, 1]<br/>class = Favorável>, fillcolor="#e58139ea"] ;
326 -> 328 ;
329 [label=<sexo &le; 0.5<br/>gini = 0.069<br/>samples = 84<br/>value = [81, 1, 2]<br/>class = Favorável>, fillcolor="#e58139f6"] ;
325 -> 329 ;
330 [label=<local_atendimento &le; 2.5<br/>gini = 0.079<br/>samples = 49<br/>value = [47, 1, 1]<br/>class = Favorável>, fillcolor="#e58139f4"] ;
329 -> 330 ;
331 [label=<gini = 0.111<br/>samples = 17<br/>value = [16, 0, 1]<br/>class = Favorável>, fillcolor="#e58139ef"] ;
330 -> 331 ;
332 [label=<gini = 0.061<br/>samples = 32<br/>value = [31, 1, 0]<br/>class = Favorável>, fillcolor="#e58139f7"] ;
330 -> 332 ;
333 [label=<local_atendimento &le; 2.5<br/>gini = 0.056<br/>samples = 35<br/>value = [34, 0, 1]<br/>class = Favorável>, fillcolor="#e58139f8"] ;
329 -> 333 ;
334 [label=<gini = 0.0<br/>samples = 13<br/>value = [13, 0, 0]<br/>class = Favorável>, fillcolor="#e58139ff"] ;
333 -> 334 ;
335 [label=<gini = 0.087<br/>samples = 22<br/>value = [21, 0, 1]<br/>class = Favorável>, fillcolor="#e58139f3"] ;
333 -> 335 ;
336 [label=<sexo &le; 0.5<br/>gini = 0.375<br/>samples = 4<br/>value = [3, 1, 0]<br/>class = Favorável>, fillcolor="#e58139aa"] ;
324 -> 336 ;
337 [label=<gini = 0.0<br/>samples = 1<br/>value = [1, 0, 0]<br/>class = Favorável>, fillcolor="#e58139ff"] ;
336 -> 337 ;
338 [label=<gini = 0.444<br/>samples = 3<br/>value = [2, 1, 0]<br/>class = Favorável>, fillcolor="#e581397f"] ;
336 -> 338 ;
339 [label=<gini = 0.0<br/>samples = 17<br/>value = [17, 0, 0]<br/>class = Favorável>, fillcolor="#e58139ff"] ;
323 -> 339 ;
340 [label=<local_atendimento &le; 2.5<br/>gini = 0.05<br/>samples = 315<br/>value = [307, 4, 4]<br/>class = Favorável>, fillcolor="#e58139f8"] ;
322 -> 340 ;
341 [label=<local_atendimento &le; 1.5<br/>gini = 0.062<br/>samples = 126<br/>value = [122, 3, 1]<br/>class = Favorável>, fillcolor="#e58139f7"] ;
340 -> 341 ;
342 [label=<sexo &le; 0.5<br/>gini = 0.03<br/>samples = 65<br/>value = [64, 1, 0]<br/>class = Favorável>, fillcolor="#e58139fb"] ;
341 -> 342 ;
343 [label=<gini = 0.0<br/>samples = 32<br/>value = [32, 0, 0]<br/>class = Favorável>, fillcolor="#e58139ff"] ;
342 -> 343 ;
344 [label=<gini = 0.059<br/>samples = 33<br/>value = [32, 1, 0]<br/>class = Favorável>, fillcolor="#e58139f7"] ;
342 -> 344 ;
345 [label=<sexo &le; 0.5<br/>gini = 0.095<br/>samples = 61<br/>value = [58, 2, 1]<br/>class = Favorável>, fillcolor="#e58139f2"] ;
341 -> 345 ;
346 [label=<gini = 0.087<br/>samples = 22<br/>value = [21, 1, 0]<br/>class = Favorável>, fillcolor="#e58139f3"] ;
345 -> 346 ;
347 [label=<gini = 0.099<br/>samples = 39<br/>value = [37, 1, 1]<br/>class = Favorável>, fillcolor="#e58139f2"] ;
345 -> 347 ;
348 [label=<sexo &le; 0.5<br/>gini = 0.042<br/>samples = 189<br/>value = [185, 1, 3]<br/>class = Favorável>, fillcolor="#e58139fa"] ;
340 -> 348 ;
349 [label=<local_atendimento &le; 5.5<br/>gini = 0.056<br/>samples = 105<br/>value = [102, 0, 3]<br/>class = Favorável>, fillcolor="#e58139f8"] ;
348 -> 349 ;
350 [label=<local_atendimento &le; 4.5<br/>gini = 0.067<br/>samples = 87<br/>value = [84, 0, 3]<br/>class = Favorável>, fillcolor="#e58139f6"] ;
349 -> 350 ;
351 [label=<local_atendimento &le; 3.5<br/>gini = 0.051<br/>samples = 77<br/>value = [75, 0, 2]<br/>class = Favorável>, fillcolor="#e58139f8"] ;
350 -> 351 ;
352 [label=<gini = 0.056<br/>samples = 70<br/>value = [68, 0, 2]<br/>class = Favorável>, fillcolor="#e58139f8"] ;
351 -> 352 ;
353 [label=<gini = 0.0<br/>samples = 7<br/>value = [7, 0, 0]<br/>class = Favorável>, fillcolor="#e58139ff"] ;
351 -> 353 ;
354 [label=<gini = 0.18<br/>samples = 10<br/>value = [9, 0, 1]<br/>class = Favorável>, fillcolor="#e58139e3"] ;
350 -> 354 ;
355 [label=<gini = 0.0<br/>samples = 18<br/>value = [18, 0, 0]<br/>class = Favorável>, fillcolor="#e58139ff"] ;
349 -> 355 ;
356 [label=<local_atendimento &le; 6.5<br/>gini = 0.024<br/>samples = 84<br/>value = [83, 1, 0]<br/>class = Favorável>, fillcolor="#e58139fc"] ;
348 -> 356 ;
357 [label=<gini = 0.0<br/>samples = 70<br/>value = [70, 0, 0]<br/>class = Favorável>, fillcolor="#e58139ff"] ;
356 -> 357 ;
358 [label=<local_atendimento &le; 8.0<br/>gini = 0.133<br/>samples = 14<br/>value = [13, 1, 0]<br/>class = Favorável>, fillcolor="#e58139eb"] ;
356 -> 358 ;
359 [label=<gini = 0.278<br/>samples = 6<br/>value = [5, 1, 0]<br/>class = Favorável>, fillcolor="#e58139cc"] ;
358 -> 359 ;
360 [label=<gini = 0.0<br/>samples = 8<br/>value = [8, 0, 0]<br/>class = Favorável>, fillcolor="#e58139ff"] ;
358 -> 360 ;
361 [label=<gini = 0.0<br/>samples = 81<br/>value = [81, 0, 0]<br/>class = Favorável>, fillcolor="#e58139ff"] ;
321 -> 361 ;
362 [label=<classificacao_idade &le; 2.5<br/>gini = 0.068<br/>samples = 6345<br/>value = [6122, 111, 112]<br/>class = Favorável>, fillcolor="#e58139f6"] ;
296 -> 362 ;
363 [label=<classificacao_idade &le; 1.5<br/>gini = 0.077<br/>samples = 2286<br/>value = [2195, 36, 55]<br/>class = Favorável>, fillcolor="#e58139f5"] ;
362 -> 363 ;
364 [label=<local_atendimento &le; 1.5<br/>gini = 0.052<br/>samples = 900<br/>value = [876, 10, 14]<br/>class = Favorável>, fillcolor="#e58139f8"] ;
363 -> 364 ;
365 [label=<mesoregiao &le; 4.5<br/>gini = 0.057<br/>samples = 783<br/>value = [760, 9, 14]<br/>class = Favorável>, fillcolor="#e58139f7"] ;
364 -> 365 ;
366 [label=<sexo &le; 0.5<br/>gini = 0.054<br/>samples = 722<br/>value = [702, 7, 13]<br/>class = Favorável>, fillcolor="#e58139f8"] ;
365 -> 366 ;
367 [label=<mesoregiao &le; 1.5<br/>gini = 0.06<br/>samples = 293<br/>value = [284, 2, 7]<br/>class = Favorável>, fillcolor="#e58139f7"] ;
366 -> 367 ;
368 [label=<local_atendimento &le; 0.5<br/>gini = 0.022<br/>samples = 90<br/>value = [89, 1, 0]<br/>class = Favorável>, fillcolor="#e58139fc"] ;
367 -> 368 ;
369 [label=<gini = 0.029<br/>samples = 69<br/>value = [68, 1, 0]<br/>class = Favorável>, fillcolor="#e58139fb"] ;
368 -> 369 ;
370 [label=<gini = 0.0<br/>samples = 21<br/>value = [21, 0, 0]<br/>class = Favorável>, fillcolor="#e58139ff"] ;
368 -> 370 ;
371 [label=<mesoregiao &le; 2.5<br/>gini = 0.076<br/>samples = 203<br/>value = [195, 1, 7]<br/>class = Favorável>, fillcolor="#e58139f5"] ;
367 -> 371 ;
372 [label=<local_atendimento &le; 0.5<br/>gini = 0.099<br/>samples = 116<br/>value = [110, 1, 5]<br/>class = Favorável>, fillcolor="#e58139f1"] ;
371 -> 372 ;
373 [label=<gini = 0.093<br/>samples = 103<br/>value = [98, 1, 4]<br/>class = Favorável>, fillcolor="#e58139f2"] ;
372 -> 373 ;
374 [label=<gini = 0.142<br/>samples = 13<br/>value = [12, 0, 1]<br/>class = Favorável>, fillcolor="#e58139ea"] ;
372 -> 374 ;
375 [label=<local_atendimento &le; 0.5<br/>gini = 0.045<br/>samples = 87<br/>value = [85, 0, 2]<br/>class = Favorável>, fillcolor="#e58139f9"] ;
371 -> 375 ;
376 [label=<mesoregiao &le; 3.5<br/>gini = 0.056<br/>samples = 69<br/>value = [67, 0, 2]<br/>class = Favorável>, fillcolor="#e58139f7"] ;
375 -> 376 ;
377 [label=<gini = 0.053<br/>samples = 37<br/>value = [36, 0, 1]<br/>class = Favorável>, fillcolor="#e58139f8"] ;
376 -> 377 ;
378 [label=<gini = 0.061<br/>samples = 32<br/>value = [31, 0, 1]<br/>class = Favorável>, fillcolor="#e58139f7"] ;
376 -> 378 ;
379 [label=<gini = 0.0<br/>samples = 18<br/>value = [18, 0, 0]<br/>class = Favorável>, fillcolor="#e58139ff"] ;
375 -> 379 ;
380 [label=<mesoregiao &le; 1.5<br/>gini = 0.05<br/>samples = 429<br/>value = [418, 5, 6]<br/>class = Favorável>, fillcolor="#e58139f8"] ;
366 -> 380 ;
381 [label=<local_atendimento &le; 0.5<br/>gini = 0.071<br/>samples = 137<br/>value = [132, 2, 3]<br/>class = Favorável>, fillcolor="#e58139f5"] ;
380 -> 381 ;
382 [label=<gini = 0.075<br/>samples = 104<br/>value = [100, 2, 2]<br/>class = Favorável>, fillcolor="#e58139f5"] ;
381 -> 382 ;
383 [label=<gini = 0.059<br/>samples = 33<br/>value = [32, 0, 1]<br/>class = Favorável>, fillcolor="#e58139f7"] ;
381 -> 383 ;
384 [label=<local_atendimento &le; 0.5<br/>gini = 0.04<br/>samples = 292<br/>value = [286, 3, 3]<br/>class = Favorável>, fillcolor="#e58139fa"] ;
380 -> 384 ;
385 [label=<mesoregiao &le; 2.5<br/>gini = 0.031<br/>samples = 251<br/>value = [247, 2, 2]<br/>class = Favorável>, fillcolor="#e58139fb"] ;
384 -> 385 ;
386 [label=<gini = 0.03<br/>samples = 131<br/>value = [129, 2, 0]<br/>class = Favorável>, fillcolor="#e58139fb"] ;
385 -> 386 ;
387 [label=<mesoregiao &le; 3.5<br/>gini = 0.033<br/>samples = 120<br/>value = [118, 0, 2]<br/>class = Favorável>, fillcolor="#e58139fb"] ;
385 -> 387 ;
388 [label=<gini = 0.031<br/>samples = 63<br/>value = [62, 0, 1]<br/>class = Favorável>, fillcolor="#e58139fb"] ;
387 -> 388 ;
389 [label=<gini = 0.034<br/>samples = 57<br/>value = [56, 0, 1]<br/>class = Favorável>, fillcolor="#e58139fa"] ;
387 -> 389 ;
390 [label=<mesoregiao &le; 2.5<br/>gini = 0.094<br/>samples = 41<br/>value = [39, 1, 1]<br/>class = Favorável>, fillcolor="#e58139f2"] ;
384 -> 390 ;
391 [label=<gini = 0.117<br/>samples = 16<br/>value = [15, 0, 1]<br/>class = Favorável>, fillcolor="#e58139ee"] ;
390 -> 391 ;
392 [label=<mesoregiao &le; 3.5<br/>gini = 0.077<br/>samples = 25<br/>value = [24, 1, 0]<br/>class = Favorável>, fillcolor="#e58139f4"] ;
390 -> 392 ;
393 [label=<gini = 0.095<br/>samples = 20<br/>value = [19, 1, 0]<br/>class = Favorável>, fillcolor="#e58139f2"] ;
392 -> 393 ;
394 [label=<gini = 0.0<br/>samples = 5<br/>value = [5, 0, 0]<br/>class = Favorável>, fillcolor="#e58139ff"] ;
392 -> 394 ;
395 [label=<local_atendimento &le; 0.5<br/>gini = 0.095<br/>samples = 61<br/>value = [58, 2, 1]<br/>class = Favorável>, fillcolor="#e58139f2"] ;
365 -> 395 ;
396 [label=<sexo &le; 0.5<br/>gini = 0.065<br/>samples = 59<br/>value = [57, 2, 0]<br/>class = Favorável>, fillcolor="#e58139f6"] ;
395 -> 396 ;
397 [label=<gini = 0.064<br/>samples = 30<br/>value = [29, 1, 0]<br/>class = Favorável>, fillcolor="#e58139f6"] ;
396 -> 397 ;
398 [label=<gini = 0.067<br/>samples = 29<br/>value = [28, 1, 0]<br/>class = Favorável>, fillcolor="#e58139f6"] ;
396 -> 398 ;
399 [label=<gini = 0.5<br/>samples = 2<br/>value = [1, 0, 1]<br/>class = Favorável>, fillcolor="#e5813900"] ;
395 -> 399 ;
400 [label=<sexo &le; 0.5<br/>gini = 0.017<br/>samples = 117<br/>value = [116, 1, 0]<br/>class = Favorável>, fillcolor="#e58139fd"] ;
364 -> 400 ;
401 [label=<mesoregiao &le; 2.5<br/>gini = 0.043<br/>samples = 45<br/>value = [44, 1, 0]<br/>class = Favorável>, fillcolor="#e58139f9"] ;
400 -> 401 ;
402 [label=<mesoregiao &le; 1.5<br/>gini = 0.059<br/>samples = 33<br/>value = [32, 1, 0]<br/>class = Favorável>, fillcolor="#e58139f7"] ;
401 -> 402 ;
403 [label=<gini = 0.0<br/>samples = 9<br/>value = [9, 0, 0]<br/>class = Favorável>, fillcolor="#e58139ff"] ;
402 -> 403 ;
404 [label=<local_atendimento &le; 2.5<br/>gini = 0.08<br/>samples = 24<br/>value = [23, 1, 0]<br/>class = Favorável>, fillcolor="#e58139f4"] ;
402 -> 404 ;
405 [label=<gini = 0.095<br/>samples = 20<br/>value = [19, 1, 0]<br/>class = Favorável>, fillcolor="#e58139f2"] ;
404 -> 405 ;
406 [label=<gini = 0.0<br/>samples = 4<br/>value = [4, 0, 0]<br/>class = Favorável>, fillcolor="#e58139ff"] ;
404 -> 406 ;
407 [label=<gini = 0.0<br/>samples = 12<br/>value = [12, 0, 0]<br/>class = Favorável>, fillcolor="#e58139ff"] ;
401 -> 407 ;
408 [label=<gini = 0.0<br/>samples = 72<br/>value = [72, 0, 0]<br/>class = Favorável>, fillcolor="#e58139ff"] ;
400 -> 408 ;
409 [label=<local_atendimento &le; 3.5<br/>gini = 0.093<br/>samples = 1386<br/>value = [1319, 26, 41]<br/>class = Favorável>, fillcolor="#e58139f2"] ;
363 -> 409 ;
410 [label=<mesoregiao &le; 2.5<br/>gini = 0.091<br/>samples = 1360<br/>value = [1296, 26, 38]<br/>class = Favorável>, fillcolor="#e58139f3"] ;
409 -> 410 ;
411 [label=<local_atendimento &le; 0.5<br/>gini = 0.106<br/>samples = 816<br/>value = [771, 18, 27]<br/>class = Favorável>, fillcolor="#e58139f0"] ;
410 -> 411 ;
412 [label=<mesoregiao &le; 1.5<br/>gini = 0.12<br/>samples = 572<br/>value = [536, 13, 23]<br/>class = Favorável>, fillcolor="#e58139ee"] ;
411 -> 412 ;
413 [label=<sexo &le; 0.5<br/>gini = 0.125<br/>samples = 244<br/>value = [228, 7, 9]<br/>class = Favorável>, fillcolor="#e58139ee"] ;
412 -> 413 ;
414 [label=<gini = 0.086<br/>samples = 90<br/>value = [86, 2, 2]<br/>class = Favorável>, fillcolor="#e58139f3"] ;
413 -> 414 ;
415 [label=<gini = 0.147<br/>samples = 154<br/>value = [142, 5, 7]<br/>class = Favorável>, fillcolor="#e58139ea"] ;
413 -> 415 ;
416 [label=<sexo &le; 0.5<br/>gini = 0.116<br/>samples = 328<br/>value = [308, 6, 14]<br/>class = Favorável>, fillcolor="#e58139ef"] ;
412 -> 416 ;
417 [label=<gini = 0.143<br/>samples = 158<br/>value = [146, 5, 7]<br/>class = Favorável>, fillcolor="#e58139eb"] ;
416 -> 417 ;
418 [label=<gini = 0.09<br/>samples = 170<br/>value = [162, 1, 7]<br/>class = Favorável>, fillcolor="#e58139f2"] ;
416 -> 418 ;
419 [label=<sexo &le; 0.5<br/>gini = 0.072<br/>samples = 244<br/>value = [235, 5, 4]<br/>class = Favorável>, fillcolor="#e58139f5"] ;
411 -> 419 ;
420 [label=<local_atendimento &le; 1.5<br/>gini = 0.051<br/>samples = 115<br/>value = [112, 1, 2]<br/>class = Favorável>, fillcolor="#e58139f8"] ;
419 -> 420 ;
421 [label=<mesoregiao &le; 1.5<br/>gini = 0.061<br/>samples = 64<br/>value = [62, 1, 1]<br/>class = Favorável>, fillcolor="#e58139f7"] ;
420 -> 421 ;
422 [label=<gini = 0.087<br/>samples = 22<br/>value = [21, 0, 1]<br/>class = Favorável>, fillcolor="#e58139f3"] ;
421 -> 422 ;
423 [label=<gini = 0.046<br/>samples = 42<br/>value = [41, 1, 0]<br/>class = Favorável>, fillcolor="#e58139f9"] ;
421 -> 423 ;
424 [label=<mesoregiao &le; 1.5<br/>gini = 0.038<br/>samples = 51<br/>value = [50, 0, 1]<br/>class = Favorável>, fillcolor="#e58139fa"] ;
420 -> 424 ;
425 [label=<gini = 0.0<br/>samples = 23<br/>value = [23, 0, 0]<br/>class = Favorável>, fillcolor="#e58139ff"] ;
424 -> 425 ;
426 [label=<gini = 0.069<br/>samples = 28<br/>value = [27, 0, 1]<br/>class = Favorável>, fillcolor="#e58139f6"] ;
424 -> 426 ;
427 [label=<mesoregiao &le; 1.5<br/>gini = 0.09<br/>samples = 129<br/>value = [123, 4, 2]<br/>class = Favorável>, fillcolor="#e58139f3"] ;
419 -> 427 ;
428 [label=<local_atendimento &le; 2.5<br/>gini = 0.127<br/>samples = 60<br/>value = [56, 2, 2]<br/>class = Favorável>, fillcolor="#e58139ed"] ;
427 -> 428 ;
429 [label=<local_atendimento &le; 1.5<br/>gini = 0.135<br/>samples = 56<br/>value = [52, 2, 2]<br/>class = Favorável>, fillcolor="#e58139ec"] ;
428 -> 429 ;
430 [label=<gini = 0.112<br/>samples = 34<br/>value = [32, 1, 1]<br/>class = Favorável>, fillcolor="#e58139f0"] ;
429 -> 430 ;
431 [label=<gini = 0.169<br/>samples = 22<br/>value = [20, 1, 1]<br/>class = Favorável>, fillcolor="#e58139e7"] ;
429 -> 431 ;
432 [label=<gini = 0.0<br/>samples = 4<br/>value = [4, 0, 0]<br/>class = Favorável>, fillcolor="#e58139ff"] ;
428 -> 432 ;
433 [label=<local_atendimento &le; 1.5<br/>gini = 0.056<br/>samples = 69<br/>value = [67, 2, 0]<br/>class = Favorável>, fillcolor="#e58139f7"] ;
427 -> 433 ;
434 [label=<gini = 0.095<br/>samples = 40<br/>value = [38, 2, 0]<br/>class = Favorável>, fillcolor="#e58139f2"] ;
433 -> 434 ;
435 [label=<gini = 0.0<br/>samples = 29<br/>value = [29, 0, 0]<br/>class = Favorável>, fillcolor="#e58139ff"] ;
433 -> 435 ;
436 [label=<mesoregiao &le; 4.5<br/>gini = 0.068<br/>samples = 544<br/>value = [525, 8, 11]<br/>class = Favorável>, fillcolor="#e58139f6"] ;
410 -> 436 ;
437 [label=<local_atendimento &le; 2.5<br/>gini = 0.075<br/>samples = 413<br/>value = [397, 6, 10]<br/>class = Favorável>, fillcolor="#e58139f5"] ;
436 -> 437 ;
438 [label=<local_atendimento &le; 1.5<br/>gini = 0.073<br/>samples = 402<br/>value = [387, 6, 9]<br/>class = Favorável>, fillcolor="#e58139f5"] ;
437 -> 438 ;
439 [label=<mesoregiao &le; 3.5<br/>gini = 0.077<br/>samples = 377<br/>value = [362, 6, 9]<br/>class = Favorável>, fillcolor="#e58139f5"] ;
438 -> 439 ;
440 [label=<sexo &le; 0.5<br/>gini = 0.058<br/>samples = 201<br/>value = [195, 2, 4]<br/>class = Favorável>, fillcolor="#e58139f7"] ;
439 -> 440 ;
441 [label=<local_atendimento &le; 0.5<br/>gini = 0.056<br/>samples = 69<br/>value = [67, 0, 2]<br/>class = Favorável>, fillcolor="#e58139f7"] ;
440 -> 441 ;
442 [label=<gini = 0.078<br/>samples = 49<br/>value = [47, 0, 2]<br/>class = Favorável>, fillcolor="#e58139f4"] ;
441 -> 442 ;
443 [label=<gini = 0.0<br/>samples = 20<br/>value = [20, 0, 0]<br/>class = Favorável>, fillcolor="#e58139ff"] ;
441 -> 443 ;
444 [label=<local_atendimento &le; 0.5<br/>gini = 0.059<br/>samples = 132<br/>value = [128, 2, 2]<br/>class = Favorável>, fillcolor="#e58139f7"] ;
440 -> 444 ;
445 [label=<gini = 0.042<br/>samples = 93<br/>value = [91, 1, 1]<br/>class = Favorável>, fillcolor="#e58139f9"] ;
444 -> 445 ;
446 [label=<gini = 0.099<br/>samples = 39<br/>value = [37, 1, 1]<br/>class = Favorável>, fillcolor="#e58139f2"] ;
444 -> 446 ;
447 [label=<local_atendimento &le; 0.5<br/>gini = 0.098<br/>samples = 176<br/>value = [167, 4, 5]<br/>class = Favorável>, fillcolor="#e58139f2"] ;
439 -> 447 ;
448 [label=<sexo &le; 0.5<br/>gini = 0.106<br/>samples = 144<br/>value = [136, 4, 4]<br/>class = Favorável>, fillcolor="#e58139f0"] ;
447 -> 448 ;
449 [label=<gini = 0.121<br/>samples = 63<br/>value = [59, 2, 2]<br/>class = Favorável>, fillcolor="#e58139ee"] ;
448 -> 449 ;
450 [label=<gini = 0.095<br/>samples = 81<br/>value = [77, 2, 2]<br/>class = Favorável>, fillcolor="#e58139f2"] ;
448 -> 450 ;
451 [label=<sexo &le; 0.5<br/>gini = 0.061<br/>samples = 32<br/>value = [31, 0, 1]<br/>class = Favorável>, fillcolor="#e58139f7"] ;
447 -> 451 ;
452 [label=<gini = 0.0<br/>samples = 8<br/>value = [8, 0, 0]<br/>class = Favorável>, fillcolor="#e58139ff"] ;
451 -> 452 ;
453 [label=<gini = 0.08<br/>samples = 24<br/>value = [23, 0, 1]<br/>class = Favorável>, fillcolor="#e58139f4"] ;
451 -> 453 ;
454 [label=<gini = 0.0<br/>samples = 25<br/>value = [25, 0, 0]<br/>class = Favorável>, fillcolor="#e58139ff"] ;
438 -> 454 ;
455 [label=<mesoregiao &le; 3.5<br/>gini = 0.165<br/>samples = 11<br/>value = [10, 0, 1]<br/>class = Favorável>, fillcolor="#e58139e6"] ;
437 -> 455 ;
456 [label=<gini = 0.375<br/>samples = 4<br/>value = [3, 0, 1]<br/>class = Favorável>, fillcolor="#e58139aa"] ;
455 -> 456 ;
457 [label=<gini = 0.0<br/>samples = 7<br/>value = [7, 0, 0]<br/>class = Favorável>, fillcolor="#e58139ff"] ;
455 -> 457 ;
458 [label=<local_atendimento &le; 0.5<br/>gini = 0.045<br/>samples = 131<br/>value = [128, 2, 1]<br/>class = Favorável>, fillcolor="#e58139f9"] ;
436 -> 458 ;
459 [label=<sexo &le; 0.5<br/>gini = 0.048<br/>samples = 81<br/>value = [79, 2, 0]<br/>class = Favorável>, fillcolor="#e58139f9"] ;
458 -> 459 ;
460 [label=<gini = 0.057<br/>samples = 34<br/>value = [33, 1, 0]<br/>class = Favorável>, fillcolor="#e58139f7"] ;
459 -> 460 ;
461 [label=<gini = 0.042<br/>samples = 47<br/>value = [46, 1, 0]<br/>class = Favorável>, fillcolor="#e58139f9"] ;
459 -> 461 ;
462 [label=<sexo &le; 0.5<br/>gini = 0.039<br/>samples = 50<br/>value = [49, 0, 1]<br/>class = Favorável>, fillcolor="#e58139fa"] ;
458 -> 462 ;
463 [label=<local_atendimento &le; 1.5<br/>gini = 0.067<br/>samples = 29<br/>value = [28, 0, 1]<br/>class = Favorável>, fillcolor="#e58139f6"] ;
462 -> 463 ;
464 [label=<gini = 0.1<br/>samples = 19<br/>value = [18, 0, 1]<br/>class = Favorável>, fillcolor="#e58139f1"] ;
463 -> 464 ;
465 [label=<gini = 0.0<br/>samples = 10<br/>value = [10, 0, 0]<br/>class = Favorável>, fillcolor="#e58139ff"] ;
463 -> 465 ;
466 [label=<gini = 0.0<br/>samples = 21<br/>value = [21, 0, 0]<br/>class = Favorável>, fillcolor="#e58139ff"] ;
462 -> 466 ;
467 [label=<mesoregiao &le; 3.5<br/>gini = 0.204<br/>samples = 26<br/>value = [23, 0, 3]<br/>class = Favorável>, fillcolor="#e58139de"] ;
409 -> 467 ;
468 [label=<mesoregiao &le; 2.5<br/>gini = 0.355<br/>samples = 13<br/>value = [10, 0, 3]<br/>class = Favorável>, fillcolor="#e58139b3"] ;
467 -> 468 ;
469 [label=<local_atendimento &le; 5.0<br/>gini = 0.278<br/>samples = 12<br/>value = [10, 0, 2]<br/>class = Favorável>, fillcolor="#e58139cc"] ;
468 -> 469 ;
470 [label=<mesoregiao &le; 1.5<br/>gini = 0.5<br/>samples = 2<br/>value = [1, 0, 1]<br/>class = Favorável>, fillcolor="#e5813900"] ;
469 -> 470 ;
471 [label=<gini = 0.0<br/>samples = 1<br/>value = [0, 0, 1]<br/>class = Não Exposição>, fillcolor="#8139e5ff"] ;
470 -> 471 ;
472 [label=<gini = 0.0<br/>samples = 1<br/>value = [1, 0, 0]<br/>class = Favorável>, fillcolor="#e58139ff"] ;
470 -> 472 ;
473 [label=<local_atendimento &le; 12.0<br/>gini = 0.18<br/>samples = 10<br/>value = [9, 0, 1]<br/>class = Favorável>, fillcolor="#e58139e3"] ;
469 -> 473 ;
474 [label=<gini = 0.0<br/>samples = 7<br/>value = [7, 0, 0]<br/>class = Favorável>, fillcolor="#e58139ff"] ;
473 -> 474 ;
475 [label=<local_atendimento &le; 14.5<br/>gini = 0.444<br/>samples = 3<br/>value = [2, 0, 1]<br/>class = Favorável>, fillcolor="#e581397f"] ;
473 -> 475 ;
476 [label=<gini = 0.5<br/>samples = 2<br/>value = [1, 0, 1]<br/>class = Favorável>, fillcolor="#e5813900"] ;
475 -> 476 ;
477 [label=<gini = 0.0<br/>samples = 1<br/>value = [1, 0, 0]<br/>class = Favorável>, fillcolor="#e58139ff"] ;
475 -> 477 ;
478 [label=<gini = 0.0<br/>samples = 1<br/>value = [0, 0, 1]<br/>class = Não Exposição>, fillcolor="#8139e5ff"] ;
468 -> 478 ;
479 [label=<gini = 0.0<br/>samples = 13<br/>value = [13, 0, 0]<br/>class = Favorável>, fillcolor="#e58139ff"] ;
467 -> 479 ;
480 [label=<local_atendimento &le; 1.5<br/>gini = 0.063<br/>samples = 4059<br/>value = [3927, 75, 57]<br/>class = Favorável>, fillcolor="#e58139f7"] ;
362 -> 480 ;
481 [label=<classificacao_idade &le; 3.5<br/>gini = 0.066<br/>samples = 3464<br/>value = [3347, 71, 46]<br/>class = Favorável>, fillcolor="#e58139f6"] ;
480 -> 481 ;
482 [label=<local_atendimento &le; 0.5<br/>gini = 0.063<br/>samples = 2628<br/>value = [2543, 49, 36]<br/>class = Favorável>, fillcolor="#e58139f7"] ;
481 -> 482 ;
483 [label=<mesoregiao &le; 1.5<br/>gini = 0.06<br/>samples = 2080<br/>value = [2016, 37, 27]<br/>class = Favorável>, fillcolor="#e58139f7"] ;
482 -> 483 ;
484 [label=<sexo &le; 0.5<br/>gini = 0.048<br/>samples = 575<br/>value = [561, 10, 4]<br/>class = Favorável>, fillcolor="#e58139f9"] ;
483 -> 484 ;
485 [label=<gini = 0.056<br/>samples = 211<br/>value = [205, 3, 3]<br/>class = Favorável>, fillcolor="#e58139f8"] ;
484 -> 485 ;
486 [label=<gini = 0.043<br/>samples = 364<br/>value = [356, 7, 1]<br/>class = Favorável>, fillcolor="#e58139f9"] ;
484 -> 486 ;
487 [label=<sexo &le; 0.5<br/>gini = 0.065<br/>samples = 1505<br/>value = [1455, 27, 23]<br/>class = Favorável>, fillcolor="#e58139f6"] ;
483 -> 487 ;
488 [label=<mesoregiao &le; 2.5<br/>gini = 0.07<br/>samples = 668<br/>value = [644, 12, 12]<br/>class = Favorável>, fillcolor="#e58139f6"] ;
487 -> 488 ;
489 [label=<gini = 0.053<br/>samples = 333<br/>value = [324, 4, 5]<br/>class = Favorável>, fillcolor="#e58139f8"] ;
488 -> 489 ;
490 [label=<mesoregiao &le; 3.5<br/>gini = 0.087<br/>samples = 335<br/>value = [320, 8, 7]<br/>class = Favorável>, fillcolor="#e58139f3"] ;
488 -> 490 ;
491 [label=<gini = 0.104<br/>samples = 129<br/>value = [122, 5, 2]<br/>class = Favorável>, fillcolor="#e58139f1"] ;
490 -> 491 ;
492 [label=<mesoregiao &le; 4.5<br/>gini = 0.075<br/>samples = 206<br/>value = [198, 3, 5]<br/>class = Favorável>, fillcolor="#e58139f5"] ;
490 -> 492 ;
493 [label=<gini = 0.075<br/>samples = 130<br/>value = [125, 2, 3]<br/>class = Favorável>, fillcolor="#e58139f5"] ;
492 -> 493 ;
494 [label=<gini = 0.077<br/>samples = 76<br/>value = [73, 1, 2]<br/>class = Favorável>, fillcolor="#e58139f5"] ;
492 -> 494 ;
495 [label=<mesoregiao &le; 2.5<br/>gini = 0.061<br/>samples = 837<br/>value = [811, 15, 11]<br/>class = Favorável>, fillcolor="#e58139f7"] ;
487 -> 495 ;
496 [label=<gini = 0.07<br/>samples = 389<br/>value = [375, 9, 5]<br/>class = Favorável>, fillcolor="#e58139f6"] ;
495 -> 496 ;
497 [label=<mesoregiao &le; 4.5<br/>gini = 0.052<br/>samples = 448<br/>value = [436, 6, 6]<br/>class = Favorável>, fillcolor="#e58139f8"] ;
495 -> 497 ;
498 [label=<mesoregiao &le; 3.5<br/>gini = 0.057<br/>samples = 377<br/>value = [366, 5, 6]<br/>class = Favorável>, fillcolor="#e58139f7"] ;
497 -> 498 ;
499 [label=<gini = 0.059<br/>samples = 198<br/>value = [192, 2, 4]<br/>class = Favorável>, fillcolor="#e58139f7"] ;
498 -> 499 ;
500 [label=<gini = 0.055<br/>samples = 179<br/>value = [174, 3, 2]<br/>class = Favorável>, fillcolor="#e58139f8"] ;
498 -> 500 ;
501 [label=<gini = 0.028<br/>samples = 71<br/>value = [70, 1, 0]<br/>class = Favorável>, fillcolor="#e58139fb"] ;
497 -> 501 ;
502 [label=<mesoregiao &le; 2.5<br/>gini = 0.074<br/>samples = 548<br/>value = [527, 12, 9]<br/>class = Favorável>, fillcolor="#e58139f5"] ;
482 -> 502 ;
503 [label=<sexo &le; 0.5<br/>gini = 0.093<br/>samples = 312<br/>value = [297, 7, 8]<br/>class = Favorável>, fillcolor="#e58139f2"] ;
502 -> 503 ;
504 [label=<mesoregiao &le; 1.5<br/>gini = 0.055<br/>samples = 142<br/>value = [138, 2, 2]<br/>class = Favorável>, fillcolor="#e58139f8"] ;
503 -> 504 ;
505 [label=<gini = 0.068<br/>samples = 57<br/>value = [55, 1, 1]<br/>class = Favorável>, fillcolor="#e58139f6"] ;
504 -> 505 ;
506 [label=<gini = 0.046<br/>samples = 85<br/>value = [83, 1, 1]<br/>class = Favorável>, fillcolor="#e58139f9"] ;
504 -> 506 ;
507 [label=<mesoregiao &le; 1.5<br/>gini = 0.123<br/>samples = 170<br/>value = [159, 5, 6]<br/>class = Favorável>, fillcolor="#e58139ee"] ;
503 -> 507 ;
508 [label=<gini = 0.106<br/>samples = 72<br/>value = [68, 2, 2]<br/>class = Favorável>, fillcolor="#e58139f0"] ;
507 -> 508 ;
509 [label=<gini = 0.135<br/>samples = 98<br/>value = [91, 3, 4]<br/>class = Favorável>, fillcolor="#e58139ec"] ;
507 -> 509 ;
510 [label=<mesoregiao &le; 4.5<br/>gini = 0.05<br/>samples = 236<br/>value = [230, 5, 1]<br/>class = Favorável>, fillcolor="#e58139f8"] ;
502 -> 510 ;
511 [label=<mesoregiao &le; 3.5<br/>gini = 0.035<br/>samples = 169<br/>value = [166, 2, 1]<br/>class = Favorável>, fillcolor="#e58139fa"] ;
510 -> 511 ;
512 [label=<sexo &le; 0.5<br/>gini = 0.054<br/>samples = 108<br/>value = [105, 2, 1]<br/>class = Favorável>, fillcolor="#e58139f8"] ;
511 -> 512 ;
513 [label=<gini = 0.043<br/>samples = 46<br/>value = [45, 0, 1]<br/>class = Favorável>, fillcolor="#e58139f9"] ;
512 -> 513 ;
514 [label=<gini = 0.062<br/>samples = 62<br/>value = [60, 2, 0]<br/>class = Favorável>, fillcolor="#e58139f6"] ;
512 -> 514 ;
515 [label=<gini = 0.0<br/>samples = 61<br/>value = [61, 0, 0]<br/>class = Favorável>, fillcolor="#e58139ff"] ;
511 -> 515 ;
516 [label=<sexo &le; 0.5<br/>gini = 0.086<br/>samples = 67<br/>value = [64, 3, 0]<br/>class = Favorável>, fillcolor="#e58139f3"] ;
510 -> 516 ;
517 [label=<gini = 0.161<br/>samples = 34<br/>value = [31, 3, 0]<br/>class = Favorável>, fillcolor="#e58139e6"] ;
516 -> 517 ;
518 [label=<gini = 0.0<br/>samples = 33<br/>value = [33, 0, 0]<br/>class = Favorável>, fillcolor="#e58139ff"] ;
516 -> 518 ;
519 [label=<mesoregiao &le; 1.5<br/>gini = 0.074<br/>samples = 836<br/>value = [804, 22, 10]<br/>class = Favorável>, fillcolor="#e58139f5"] ;
481 -> 519 ;
520 [label=<sexo &le; 0.5<br/>gini = 0.096<br/>samples = 220<br/>value = [209, 9, 2]<br/>class = Favorável>, fillcolor="#e58139f2"] ;
519 -> 520 ;
521 [label=<local_atendimento &le; 0.5<br/>gini = 0.146<br/>samples = 89<br/>value = [82, 6, 1]<br/>class = Favorável>, fillcolor="#e58139e9"] ;
520 -> 521 ;
522 [label=<gini = 0.169<br/>samples = 76<br/>value = [69, 6, 1]<br/>class = Favorável>, fillcolor="#e58139e6"] ;
521 -> 522 ;
523 [label=<gini = 0.0<br/>samples = 13<br/>value = [13, 0, 0]<br/>class = Favorável>, fillcolor="#e58139ff"] ;
521 -> 523 ;
524 [label=<local_atendimento &le; 0.5<br/>gini = 0.06<br/>samples = 131<br/>value = [127, 3, 1]<br/>class = Favorável>, fillcolor="#e58139f7"] ;
520 -> 524 ;
525 [label=<gini = 0.067<br/>samples = 116<br/>value = [112, 3, 1]<br/>class = Favorável>, fillcolor="#e58139f6"] ;
524 -> 525 ;
526 [label=<gini = 0.0<br/>samples = 15<br/>value = [15, 0, 0]<br/>class = Favorável>, fillcolor="#e58139ff"] ;
524 -> 526 ;
527 [label=<mesoregiao &le; 3.5<br/>gini = 0.066<br/>samples = 616<br/>value = [595, 13, 8]<br/>class = Favorável>, fillcolor="#e58139f6"] ;
519 -> 527 ;
528 [label=<local_atendimento &le; 0.5<br/>gini = 0.052<br/>samples = 453<br/>value = [441, 8, 4]<br/>class = Favorável>, fillcolor="#e58139f8"] ;
527 -> 528 ;
529 [label=<mesoregiao &le; 2.5<br/>gini = 0.045<br/>samples = 350<br/>value = [342, 5, 3]<br/>class = Favorável>, fillcolor="#e58139f9"] ;
528 -> 529 ;
530 [label=<sexo &le; 0.5<br/>gini = 0.055<br/>samples = 249<br/>value = [242, 5, 2]<br/>class = Favorável>, fillcolor="#e58139f8"] ;
529 -> 530 ;
531 [label=<gini = 0.059<br/>samples = 100<br/>value = [97, 2, 1]<br/>class = Favorável>, fillcolor="#e58139f7"] ;
530 -> 531 ;
532 [label=<gini = 0.053<br/>samples = 149<br/>value = [145, 3, 1]<br/>class = Favorável>, fillcolor="#e58139f8"] ;
530 -> 532 ;
533 [label=<sexo &le; 0.5<br/>gini = 0.02<br/>samples = 101<br/>value = [100, 0, 1]<br/>class = Favorável>, fillcolor="#e58139fc"] ;
529 -> 533 ;
534 [label=<gini = 0.0<br/>samples = 41<br/>value = [41, 0, 0]<br/>class = Favorável>, fillcolor="#e58139ff"] ;
533 -> 534 ;
535 [label=<gini = 0.033<br/>samples = 60<br/>value = [59, 0, 1]<br/>class = Favorável>, fillcolor="#e58139fb"] ;
533 -> 535 ;
536 [label=<mesoregiao &le; 2.5<br/>gini = 0.075<br/>samples = 103<br/>value = [99, 3, 1]<br/>class = Favorável>, fillcolor="#e58139f5"] ;
528 -> 536 ;
537 [label=<sexo &le; 0.5<br/>gini = 0.033<br/>samples = 59<br/>value = [58, 0, 1]<br/>class = Favorável>, fillcolor="#e58139fb"] ;
536 -> 537 ;
538 [label=<gini = 0.0<br/>samples = 30<br/>value = [30, 0, 0]<br/>class = Favorável>, fillcolor="#e58139ff"] ;
537 -> 538 ;
539 [label=<gini = 0.067<br/>samples = 29<br/>value = [28, 0, 1]<br/>class = Favorável>, fillcolor="#e58139f6"] ;
537 -> 539 ;
540 [label=<sexo &le; 0.5<br/>gini = 0.127<br/>samples = 44<br/>value = [41, 3, 0]<br/>class = Favorável>, fillcolor="#e58139ec"] ;
536 -> 540 ;
541 [label=<gini = 0.087<br/>samples = 22<br/>value = [21, 1, 0]<br/>class = Favorável>, fillcolor="#e58139f3"] ;
540 -> 541 ;
542 [label=<gini = 0.165<br/>samples = 22<br/>value = [20, 2, 0]<br/>class = Favorável>, fillcolor="#e58139e6"] ;
540 -> 542 ;
543 [label=<local_atendimento &le; 0.5<br/>gini = 0.106<br/>samples = 163<br/>value = [154, 5, 4]<br/>class = Favorável>, fillcolor="#e58139f0"] ;
527 -> 543 ;
544 [label=<sexo &le; 0.5<br/>gini = 0.085<br/>samples = 137<br/>value = [131, 4, 2]<br/>class = Favorável>, fillcolor="#e58139f3"] ;
543 -> 544 ;
545 [label=<mesoregiao &le; 4.5<br/>gini = 0.035<br/>samples = 56<br/>value = [55, 1, 0]<br/>class = Favorável>, fillcolor="#e58139fa"] ;
544 -> 545 ;
546 [label=<gini = 0.0<br/>samples = 42<br/>value = [42, 0, 0]<br/>class = Favorável>, fillcolor="#e58139ff"] ;
545 -> 546 ;
547 [label=<gini = 0.133<br/>samples = 14<br/>value = [13, 1, 0]<br/>class = Favorável>, fillcolor="#e58139eb"] ;
545 -> 547 ;
548 [label=<mesoregiao &le; 4.5<br/>gini = 0.118<br/>samples = 81<br/>value = [76, 3, 2]<br/>class = Favorável>, fillcolor="#e58139ef"] ;
544 -> 548 ;
549 [label=<gini = 0.138<br/>samples = 55<br/>value = [51, 2, 2]<br/>class = Favorável>, fillcolor="#e58139ec"] ;
548 -> 549 ;
550 [label=<gini = 0.074<br/>samples = 26<br/>value = [25, 1, 0]<br/>class = Favorável>, fillcolor="#e58139f5"] ;
548 -> 550 ;
551 [label=<sexo &le; 0.5<br/>gini = 0.21<br/>samples = 26<br/>value = [23, 1, 2]<br/>class = Favorável>, fillcolor="#e58139df"] ;
543 -> 551 ;
552 [label=<mesoregiao &le; 4.5<br/>gini = 0.26<br/>samples = 13<br/>value = [11, 0, 2]<br/>class = Favorável>, fillcolor="#e58139d1"] ;
551 -> 552 ;
553 [label=<gini = 0.375<br/>samples = 8<br/>value = [6, 0, 2]<br/>class = Favorável>, fillcolor="#e58139aa"] ;
552 -> 553 ;
554 [label=<gini = 0.0<br/>samples = 5<br/>value = [5, 0, 0]<br/>class = Favorável>, fillcolor="#e58139ff"] ;
552 -> 554 ;
555 [label=<mesoregiao &le; 4.5<br/>gini = 0.142<br/>samples = 13<br/>value = [12, 1, 0]<br/>class = Favorável>, fillcolor="#e58139ea"] ;
551 -> 555 ;
556 [label=<gini = 0.0<br/>samples = 7<br/>value = [7, 0, 0]<br/>class = Favorável>, fillcolor="#e58139ff"] ;
555 -> 556 ;
557 [label=<gini = 0.278<br/>samples = 6<br/>value = [5, 1, 0]<br/>class = Favorável>, fillcolor="#e58139cc"] ;
555 -> 557 ;
558 [label=<mesoregiao &le; 3.5<br/>gini = 0.049<br/>samples = 595<br/>value = [580, 4, 11]<br/>class = Favorável>, fillcolor="#e58139f8"] ;
480 -> 558 ;
559 [label=<sexo &le; 0.5<br/>gini = 0.034<br/>samples = 470<br/>value = [462, 4, 4]<br/>class = Favorável>, fillcolor="#e58139fb"] ;
558 -> 559 ;
560 [label=<mesoregiao &le; 2.5<br/>gini = 0.051<br/>samples = 230<br/>value = [224, 3, 3]<br/>class = Favorável>, fillcolor="#e58139f8"] ;
559 -> 560 ;
561 [label=<classificacao_idade &le; 3.5<br/>gini = 0.057<br/>samples = 206<br/>value = [200, 3, 3]<br/>class = Favorável>, fillcolor="#e58139f7"] ;
560 -> 561 ;
562 [label=<local_atendimento &le; 2.5<br/>gini = 0.061<br/>samples = 160<br/>value = [155, 3, 2]<br/>class = Favorável>, fillcolor="#e58139f7"] ;
561 -> 562 ;
563 [label=<mesoregiao &le; 1.5<br/>gini = 0.058<br/>samples = 134<br/>value = [130, 3, 1]<br/>class = Favorável>, fillcolor="#e58139f7"] ;
562 -> 563 ;
564 [label=<gini = 0.046<br/>samples = 42<br/>value = [41, 1, 0]<br/>class = Favorável>, fillcolor="#e58139f9"] ;
563 -> 564 ;
565 [label=<gini = 0.064<br/>samples = 92<br/>value = [89, 2, 1]<br/>class = Favorável>, fillcolor="#e58139f6"] ;
563 -> 565 ;
566 [label=<local_atendimento &le; 3.5<br/>gini = 0.074<br/>samples = 26<br/>value = [25, 0, 1]<br/>class = Favorável>, fillcolor="#e58139f5"] ;
562 -> 566 ;
567 [label=<mesoregiao &le; 1.5<br/>gini = 0.133<br/>samples = 14<br/>value = [13, 0, 1]<br/>class = Favorável>, fillcolor="#e58139eb"] ;
566 -> 567 ;
568 [label=<gini = 0.153<br/>samples = 12<br/>value = [11, 0, 1]<br/>class = Favorável>, fillcolor="#e58139e8"] ;
567 -> 568 ;
569 [label=<gini = 0.0<br/>samples = 2<br/>value = [2, 0, 0]<br/>class = Favorável>, fillcolor="#e58139ff"] ;
567 -> 569 ;
570 [label=<gini = 0.0<br/>samples = 12<br/>value = [12, 0, 0]<br/>class = Favorável>, fillcolor="#e58139ff"] ;
566 -> 570 ;
571 [label=<mesoregiao &le; 1.5<br/>gini = 0.043<br/>samples = 46<br/>value = [45, 0, 1]<br/>class = Favorável>, fillcolor="#e58139f9"] ;
561 -> 571 ;
572 [label=<gini = 0.0<br/>samples = 16<br/>value = [16, 0, 0]<br/>class = Favorável>, fillcolor="#e58139ff"] ;
571 -> 572 ;
573 [label=<local_atendimento &le; 2.5<br/>gini = 0.064<br/>samples = 30<br/>value = [29, 0, 1]<br/>class = Favorável>, fillcolor="#e58139f6"] ;
571 -> 573 ;
574 [label=<gini = 0.071<br/>samples = 27<br/>value = [26, 0, 1]<br/>class = Favorável>, fillcolor="#e58139f5"] ;
573 -> 574 ;
575 [label=<gini = 0.0<br/>samples = 3<br/>value = [3, 0, 0]<br/>class = Favorável>, fillcolor="#e58139ff"] ;
573 -> 575 ;
576 [label=<gini = 0.0<br/>samples = 24<br/>value = [24, 0, 0]<br/>class = Favorável>, fillcolor="#e58139ff"] ;
560 -> 576 ;
577 [label=<mesoregiao &le; 1.5<br/>gini = 0.017<br/>samples = 240<br/>value = [238, 1, 1]<br/>class = Favorável>, fillcolor="#e58139fd"] ;
559 -> 577 ;
578 [label=<local_atendimento &le; 2.5<br/>gini = 0.02<br/>samples = 99<br/>value = [98, 1, 0]<br/>class = Favorável>, fillcolor="#e58139fc"] ;
577 -> 578 ;
579 [label=<classificacao_idade &le; 3.5<br/>gini = 0.029<br/>samples = 69<br/>value = [68, 1, 0]<br/>class = Favorável>, fillcolor="#e58139fb"] ;
578 -> 579 ;
580 [label=<gini = 0.04<br/>samples = 49<br/>value = [48, 1, 0]<br/>class = Favorável>, fillcolor="#e58139fa"] ;
579 -> 580 ;
581 [label=<gini = 0.0<br/>samples = 20<br/>value = [20, 0, 0]<br/>class = Favorável>, fillcolor="#e58139ff"] ;
579 -> 581 ;
582 [label=<gini = 0.0<br/>samples = 30<br/>value = [30, 0, 0]<br/>class = Favorável>, fillcolor="#e58139ff"] ;
578 -> 582 ;
583 [label=<classificacao_idade &le; 3.5<br/>gini = 0.014<br/>samples = 141<br/>value = [140, 0, 1]<br/>class = Favorável>, fillcolor="#e58139fd"] ;
577 -> 583 ;
584 [label=<local_atendimento &le; 2.5<br/>gini = 0.019<br/>samples = 102<br/>value = [101, 0, 1]<br/>class = Favorável>, fillcolor="#e58139fc"] ;
583 -> 584 ;
585 [label=<mesoregiao &le; 2.5<br/>gini = 0.023<br/>samples = 85<br/>value = [84, 0, 1]<br/>class = Favorável>, fillcolor="#e58139fc"] ;
584 -> 585 ;
586 [label=<gini = 0.026<br/>samples = 77<br/>value = [76, 0, 1]<br/>class = Favorável>, fillcolor="#e58139fc"] ;
585 -> 586 ;
587 [label=<gini = 0.0<br/>samples = 8<br/>value = [8, 0, 0]<br/>class = Favorável>, fillcolor="#e58139ff"] ;
585 -> 587 ;
588 [label=<gini = 0.0<br/>samples = 17<br/>value = [17, 0, 0]<br/>class = Favorável>, fillcolor="#e58139ff"] ;
584 -> 588 ;
589 [label=<gini = 0.0<br/>samples = 39<br/>value = [39, 0, 0]<br/>class = Favorável>, fillcolor="#e58139ff"] ;
583 -> 589 ;
590 [label=<mesoregiao &le; 4.5<br/>gini = 0.106<br/>samples = 125<br/>value = [118, 0, 7]<br/>class = Favorável>, fillcolor="#e58139f0"] ;
558 -> 590 ;
591 [label=<local_atendimento &le; 3.5<br/>gini = 0.139<br/>samples = 80<br/>value = [74, 0, 6]<br/>class = Favorável>, fillcolor="#e58139ea"] ;
590 -> 591 ;
592 [label=<classificacao_idade &le; 3.5<br/>gini = 0.157<br/>samples = 70<br/>value = [64, 0, 6]<br/>class = Favorável>, fillcolor="#e58139e7"] ;
591 -> 592 ;
593 [label=<sexo &le; 0.5<br/>gini = 0.165<br/>samples = 55<br/>value = [50, 0, 5]<br/>class = Favorável>, fillcolor="#e58139e6"] ;
592 -> 593 ;
594 [label=<local_atendimento &le; 2.5<br/>gini = 0.198<br/>samples = 27<br/>value = [24, 0, 3]<br/>class = Favorável>, fillcolor="#e58139df"] ;
593 -> 594 ;
595 [label=<gini = 0.153<br/>samples = 12<br/>value = [11, 0, 1]<br/>class = Favorável>, fillcolor="#e58139e8"] ;
594 -> 595 ;
596 [label=<gini = 0.231<br/>samples = 15<br/>value = [13, 0, 2]<br/>class = Favorável>, fillcolor="#e58139d8"] ;
594 -> 596 ;
597 [label=<local_atendimento &le; 2.5<br/>gini = 0.133<br/>samples = 28<br/>value = [26, 0, 2]<br/>class = Favorável>, fillcolor="#e58139eb"] ;
593 -> 597 ;
598 [label=<gini = 0.18<br/>samples = 20<br/>value = [18, 0, 2]<br/>class = Favorável>, fillcolor="#e58139e3"] ;
597 -> 598 ;
599 [label=<gini = 0.0<br/>samples = 8<br/>value = [8, 0, 0]<br/>class = Favorável>, fillcolor="#e58139ff"] ;
597 -> 599 ;
600 [label=<sexo &le; 0.5<br/>gini = 0.124<br/>samples = 15<br/>value = [14, 0, 1]<br/>class = Favorável>, fillcolor="#e58139ed"] ;
592 -> 600 ;
601 [label=<gini = 0.0<br/>samples = 8<br/>value = [8, 0, 0]<br/>class = Favorável>, fillcolor="#e58139ff"] ;
600 -> 601 ;
602 [label=<local_atendimento &le; 2.5<br/>gini = 0.245<br/>samples = 7<br/>value = [6, 0, 1]<br/>class = Favorável>, fillcolor="#e58139d4"] ;
600 -> 602 ;
603 [label=<gini = 0.278<br/>samples = 6<br/>value = [5, 0, 1]<br/>class = Favorável>, fillcolor="#e58139cc"] ;
602 -> 603 ;
604 [label=<gini = 0.0<br/>samples = 1<br/>value = [1, 0, 0]<br/>class = Favorável>, fillcolor="#e58139ff"] ;
602 -> 604 ;
605 [label=<gini = 0.0<br/>samples = 10<br/>value = [10, 0, 0]<br/>class = Favorável>, fillcolor="#e58139ff"] ;
591 -> 605 ;
606 [label=<local_atendimento &le; 2.5<br/>gini = 0.043<br/>samples = 45<br/>value = [44, 0, 1]<br/>class = Favorável>, fillcolor="#e58139f9"] ;
590 -> 606 ;
607 [label=<gini = 0.0<br/>samples = 34<br/>value = [34, 0, 0]<br/>class = Favorável>, fillcolor="#e58139ff"] ;
606 -> 607 ;
608 [label=<local_atendimento &le; 4.5<br/>gini = 0.165<br/>samples = 11<br/>value = [10, 0, 1]<br/>class = Favorável>, fillcolor="#e58139e6"] ;
606 -> 608 ;
609 [label=<sexo &le; 0.5<br/>gini = 0.278<br/>samples = 6<br/>value = [5, 0, 1]<br/>class = Favorável>, fillcolor="#e58139cc"] ;
608 -> 609 ;
610 [label=<gini = 0.375<br/>samples = 4<br/>value = [3, 0, 1]<br/>class = Favorável>, fillcolor="#e58139aa"] ;
609 -> 610 ;
611 [label=<gini = 0.0<br/>samples = 2<br/>value = [2, 0, 0]<br/>class = Favorável>, fillcolor="#e58139ff"] ;
609 -> 611 ;
612 [label=<gini = 0.0<br/>samples = 5<br/>value = [5, 0, 0]<br/>class = Favorável>, fillcolor="#e58139ff"] ;
608 -> 612 ;
613 [label=<grupo_agente &le; 2.5<br/>gini = 0.476<br/>samples = 12127<br/>value = [7529, 79, 4519]<br/>class = Favorável>, fillcolor="#e5813965"] ;
1 -> 613 ;
614 [label=<mesoregiao &le; 0.5<br/>gini = 0.311<br/>samples = 5248<br/>value = [1004, 6, 4238]<br/>class = Não Exposição>, fillcolor="#8139e5c2"] ;
613 -> 614 ;
615 [label=<local_atendimento &le; 5.5<br/>gini = 0.244<br/>samples = 1591<br/>value = [221, 4, 1366]<br/>class = Não Exposição>, fillcolor="#8139e5d5"] ;
614 -> 615 ;
616 [label=<local_atendimento &le; 4.5<br/>gini = 0.237<br/>samples = 1512<br/>value = [204, 3, 1305]<br/>class = Não Exposição>, fillcolor="#8139e5d7"] ;
615 -> 616 ;
617 [label=<local_atendimento &le; 0.5<br/>gini = 0.248<br/>samples = 1400<br/>value = [199, 3, 1198]<br/>class = Não Exposição>, fillcolor="#8139e5d4"] ;
616 -> 617 ;
618 [label=<classificacao_idade &le; 2.5<br/>gini = 0.229<br/>samples = 755<br/>value = [96, 3, 656]<br/>class = Não Exposição>, fillcolor="#8139e5d9"] ;
617 -> 618 ;
619 [label=<classificacao_idade &le; 0.5<br/>gini = 0.247<br/>samples = 458<br/>value = [65, 1, 392]<br/>class = Não Exposição>, fillcolor="#8139e5d4"] ;
618 -> 619 ;
620 [label=<sexo &le; 0.5<br/>gini = 0.282<br/>samples = 106<br/>value = [18, 0, 88]<br/>class = Não Exposição>, fillcolor="#8139e5cb"] ;
619 -> 620 ;
621 [label=<gini = 0.252<br/>samples = 54<br/>value = [8, 0, 46]<br/>class = Não Exposição>, fillcolor="#8139e5d3"] ;
620 -> 621 ;
622 [label=<gini = 0.311<br/>samples = 52<br/>value = [10, 0, 42]<br/>class = Não Exposição>, fillcolor="#8139e5c2"] ;
620 -> 622 ;
623 [label=<sexo &le; 0.5<br/>gini = 0.236<br/>samples = 352<br/>value = [47, 1, 304]<br/>class = Não Exposição>, fillcolor="#8139e5d7"] ;
619 -> 623 ;
624 [label=<classificacao_idade &le; 1.5<br/>gini = 0.232<br/>samples = 173<br/>value = [22, 1, 150]<br/>class = Não Exposição>, fillcolor="#8139e5d8"] ;
623 -> 624 ;
625 [label=<gini = 0.264<br/>samples = 83<br/>value = [13, 0, 70]<br/>class = Não Exposição>, fillcolor="#8139e5d0"] ;
624 -> 625 ;
626 [label=<gini = 0.2<br/>samples = 90<br/>value = [9, 1, 80]<br/>class = Não Exposição>, fillcolor="#8139e5e0"] ;
624 -> 626 ;
627 [label=<classificacao_idade &le; 1.5<br/>gini = 0.24<br/>samples = 179<br/>value = [25, 0, 154]<br/>class = Não Exposição>, fillcolor="#8139e5d6"] ;
623 -> 627 ;
628 [label=<gini = 0.214<br/>samples = 82<br/>value = [10, 0, 72]<br/>class = Não Exposição>, fillcolor="#8139e5dc"] ;
627 -> 628 ;
629 [label=<gini = 0.261<br/>samples = 97<br/>value = [15, 0, 82]<br/>class = Não Exposição>, fillcolor="#8139e5d0"] ;
627 -> 629 ;
630 [label=<sexo &le; 0.5<br/>gini = 0.199<br/>samples = 297<br/>value = [31, 2, 264]<br/>class = Não Exposição>, fillcolor="#8139e5df"] ;
618 -> 630 ;
631 [label=<classificacao_idade &le; 3.5<br/>gini = 0.158<br/>samples = 127<br/>value = [11, 0, 116]<br/>class = Não Exposição>, fillcolor="#8139e5e7"] ;
630 -> 631 ;
632 [label=<gini = 0.174<br/>samples = 104<br/>value = [10, 0, 94]<br/>class = Não Exposição>, fillcolor="#8139e5e4"] ;
631 -> 632 ;
633 [label=<gini = 0.083<br/>samples = 23<br/>value = [1, 0, 22]<br/>class = Não Exposição>, fillcolor="#8139e5f3"] ;
631 -> 633 ;
634 [label=<classificacao_idade &le; 3.5<br/>gini = 0.228<br/>samples = 170<br/>value = [20, 2, 148]<br/>class = Não Exposição>, fillcolor="#8139e5da"] ;
630 -> 634 ;
635 [label=<gini = 0.219<br/>samples = 146<br/>value = [16, 2, 128]<br/>class = Não Exposição>, fillcolor="#8139e5dc"] ;
634 -> 635 ;
636 [label=<gini = 0.278<br/>samples = 24<br/>value = [4, 0, 20]<br/>class = Não Exposição>, fillcolor="#8139e5cc"] ;
634 -> 636 ;
637 [label=<local_atendimento &le; 1.5<br/>gini = 0.268<br/>samples = 645<br/>value = [103, 0, 542]<br/>class = Não Exposição>, fillcolor="#8139e5cf"] ;
617 -> 637 ;
638 [label=<classificacao_idade &le; 2.5<br/>gini = 0.31<br/>samples = 125<br/>value = [24, 0, 101]<br/>class = Não Exposição>, fillcolor="#8139e5c2"] ;
637 -> 638 ;
639 [label=<sexo &le; 0.5<br/>gini = 0.381<br/>samples = 78<br/>value = [20, 0, 58]<br/>class = Não Exposição>, fillcolor="#8139e5a7"] ;
638 -> 639 ;
640 [label=<classificacao_idade &le; 1.5<br/>gini = 0.426<br/>samples = 39<br/>value = [12, 0, 27]<br/>class = Não Exposição>, fillcolor="#8139e58e"] ;
639 -> 640 ;
641 [label=<classificacao_idade &le; 0.5<br/>gini = 0.483<br/>samples = 22<br/>value = [9, 0, 13]<br/>class = Não Exposição>, fillcolor="#8139e54e"] ;
640 -> 641 ;
642 [label=<gini = 0.5<br/>samples = 10<br/>value = [5, 0, 5]<br/>class = Favorável>, fillcolor="#e5813900"] ;
641 -> 642 ;
643 [label=<gini = 0.444<br/>samples = 12<br/>value = [4, 0, 8]<br/>class = Não Exposição>, fillcolor="#8139e57f"] ;
641 -> 643 ;
644 [label=<gini = 0.291<br/>samples = 17<br/>value = [3, 0, 14]<br/>class = Não Exposição>, fillcolor="#8139e5c8"] ;
640 -> 644 ;
645 [label=<classificacao_idade &le; 0.5<br/>gini = 0.326<br/>samples = 39<br/>value = [8, 0, 31]<br/>class = Não Exposição>, fillcolor="#8139e5bd"] ;
639 -> 645 ;
646 [label=<gini = 0.153<br/>samples = 12<br/>value = [1, 0, 11]<br/>class = Não Exposição>, fillcolor="#8139e5e8"] ;
645 -> 646 ;
647 [label=<classificacao_idade &le; 1.5<br/>gini = 0.384<br/>samples = 27<br/>value = [7, 0, 20]<br/>class = Não Exposição>, fillcolor="#8139e5a6"] ;
645 -> 647 ;
648 [label=<gini = 0.408<br/>samples = 14<br/>value = [4, 0, 10]<br/>class = Não Exposição>, fillcolor="#8139e599"] ;
647 -> 648 ;
649 [label=<gini = 0.355<br/>samples = 13<br/>value = [3, 0, 10]<br/>class = Não Exposição>, fillcolor="#8139e5b3"] ;
647 -> 649 ;
650 [label=<sexo &le; 0.5<br/>gini = 0.156<br/>samples = 47<br/>value = [4, 0, 43]<br/>class = Não Exposição>, fillcolor="#8139e5e7"] ;
638 -> 650 ;
651 [label=<classificacao_idade &le; 3.5<br/>gini = 0.227<br/>samples = 23<br/>value = [3, 0, 20]<br/>class = Não Exposição>, fillcolor="#8139e5d9"] ;
650 -> 651 ;
652 [label=<gini = 0.172<br/>samples = 21<br/>value = [2, 0, 19]<br/>class = Não Exposição>, fillcolor="#8139e5e4"] ;
651 -> 652 ;
653 [label=<gini = 0.5<br/>samples = 2<br/>value = [1, 0, 1]<br/>class = Favorável>, fillcolor="#e5813900"] ;
651 -> 653 ;
654 [label=<classificacao_idade &le; 3.5<br/>gini = 0.08<br/>samples = 24<br/>value = [1, 0, 23]<br/>class = Não Exposição>, fillcolor="#8139e5f4"] ;
650 -> 654 ;
655 [label=<gini = 0.095<br/>samples = 20<br/>value = [1, 0, 19]<br/>class = Não Exposição>, fillcolor="#8139e5f2"] ;
654 -> 655 ;
656 [label=<gini = 0.0<br/>samples = 4<br/>value = [0, 0, 4]<br/>class = Não Exposição>, fillcolor="#8139e5ff"] ;
654 -> 656 ;
657 [label=<local_atendimento &le; 2.5<br/>gini = 0.258<br/>samples = 520<br/>value = [79, 0, 441]<br/>class = Não Exposição>, fillcolor="#8139e5d1"] ;
637 -> 657 ;
658 [label=<classificacao_idade &le; 1.5<br/>gini = 0.185<br/>samples = 97<br/>value = [10, 0, 87]<br/>class = Não Exposição>, fillcolor="#8139e5e2"] ;
657 -> 658 ;
659 [label=<sexo &le; 0.5<br/>gini = 0.227<br/>samples = 23<br/>value = [3, 0, 20]<br/>class = Não Exposição>, fillcolor="#8139e5d9"] ;
658 -> 659 ;
660 [label=<classificacao_idade &le; 0.5<br/>gini = 0.278<br/>samples = 12<br/>value = [2, 0, 10]<br/>class = Não Exposição>, fillcolor="#8139e5cc"] ;
659 -> 660 ;
661 [label=<gini = 0.375<br/>samples = 4<br/>value = [1, 0, 3]<br/>class = Não Exposição>, fillcolor="#8139e5aa"] ;
660 -> 661 ;
662 [label=<gini = 0.219<br/>samples = 8<br/>value = [1, 0, 7]<br/>class = Não Exposição>, fillcolor="#8139e5db"] ;
660 -> 662 ;
663 [label=<classificacao_idade &le; 0.5<br/>gini = 0.165<br/>samples = 11<br/>value = [1, 0, 10]<br/>class = Não Exposição>, fillcolor="#8139e5e6"] ;
659 -> 663 ;
664 [label=<gini = 0.0<br/>samples = 6<br/>value = [0, 0, 6]<br/>class = Não Exposição>, fillcolor="#8139e5ff"] ;
663 -> 664 ;
665 [label=<gini = 0.32<br/>samples = 5<br/>value = [1, 0, 4]<br/>class = Não Exposição>, fillcolor="#8139e5bf"] ;
663 -> 665 ;
666 [label=<classificacao_idade &le; 2.5<br/>gini = 0.171<br/>samples = 74<br/>value = [7, 0, 67]<br/>class = Não Exposição>, fillcolor="#8139e5e4"] ;
658 -> 666 ;
667 [label=<sexo &le; 0.5<br/>gini = 0.111<br/>samples = 17<br/>value = [1, 0, 16]<br/>class = Não Exposição>, fillcolor="#8139e5ef"] ;
666 -> 667 ;
668 [label=<gini = 0.0<br/>samples = 7<br/>value = [0, 0, 7]<br/>class = Não Exposição>, fillcolor="#8139e5ff"] ;
667 -> 668 ;
669 [label=<gini = 0.18<br/>samples = 10<br/>value = [1, 0, 9]<br/>class = Não Exposição>, fillcolor="#8139e5e3"] ;
667 -> 669 ;
670 [label=<sexo &le; 0.5<br/>gini = 0.188<br/>samples = 57<br/>value = [6, 0, 51]<br/>class = Não Exposição>, fillcolor="#8139e5e1"] ;
666 -> 670 ;
671 [label=<classificacao_idade &le; 3.5<br/>gini = 0.219<br/>samples = 24<br/>value = [3, 0, 21]<br/>class = Não Exposição>, fillcolor="#8139e5db"] ;
670 -> 671 ;
672 [label=<gini = 0.266<br/>samples = 19<br/>value = [3, 0, 16]<br/>class = Não Exposição>, fillcolor="#8139e5cf"] ;
671 -> 672 ;
673 [label=<gini = 0.0<br/>samples = 5<br/>value = [0, 0, 5]<br/>class = Não Exposição>, fillcolor="#8139e5ff"] ;
671 -> 673 ;
674 [label=<classificacao_idade &le; 3.5<br/>gini = 0.165<br/>samples = 33<br/>value = [3, 0, 30]<br/>class = Não Exposição>, fillcolor="#8139e5e6"] ;
670 -> 674 ;
675 [label=<gini = 0.142<br/>samples = 26<br/>value = [2, 0, 24]<br/>class = Não Exposição>, fillcolor="#8139e5ea"] ;
674 -> 675 ;
676 [label=<gini = 0.245<br/>samples = 7<br/>value = [1, 0, 6]<br/>class = Não Exposição>, fillcolor="#8139e5d4"] ;
674 -> 676 ;
677 [label=<classificacao_idade &le; 2.5<br/>gini = 0.273<br/>samples = 423<br/>value = [69, 0, 354]<br/>class = Não Exposição>, fillcolor="#8139e5cd"] ;
657 -> 677 ;
678 [label=<sexo &le; 0.5<br/>gini = 0.231<br/>samples = 203<br/>value = [27, 0, 176]<br/>class = Não Exposição>, fillcolor="#8139e5d8"] ;
677 -> 678 ;
679 [label=<classificacao_idade &le; 1.5<br/>gini = 0.253<br/>samples = 121<br/>value = [18, 0, 103]<br/>class = Não Exposição>, fillcolor="#8139e5d2"] ;
678 -> 679 ;
680 [label=<classificacao_idade &le; 0.5<br/>gini = 0.324<br/>samples = 54<br/>value = [11, 0, 43]<br/>class = Não Exposição>, fillcolor="#8139e5be"] ;
679 -> 680 ;
681 [label=<local_atendimento &le; 3.5<br/>gini = 0.375<br/>samples = 16<br/>value = [4, 0, 12]<br/>class = Não Exposição>, fillcolor="#8139e5aa"] ;
680 -> 681 ;
682 [label=<gini = 0.391<br/>samples = 15<br/>value = [4, 0, 11]<br/>class = Não Exposição>, fillcolor="#8139e5a2"] ;
681 -> 682 ;
683 [label=<gini = 0.0<br/>samples = 1<br/>value = [0, 0, 1]<br/>class = Não Exposição>, fillcolor="#8139e5ff"] ;
681 -> 683 ;
684 [label=<local_atendimento &le; 3.5<br/>gini = 0.301<br/>samples = 38<br/>value = [7, 0, 31]<br/>class = Não Exposição>, fillcolor="#8139e5c5"] ;
680 -> 684 ;
685 [label=<gini = 0.305<br/>samples = 32<br/>value = [6, 0, 26]<br/>class = Não Exposição>, fillcolor="#8139e5c4"] ;
684 -> 685 ;
686 [label=<gini = 0.278<br/>samples = 6<br/>value = [1, 0, 5]<br/>class = Não Exposição>, fillcolor="#8139e5cc"] ;
684 -> 686 ;
687 [label=<local_atendimento &le; 3.5<br/>gini = 0.187<br/>samples = 67<br/>value = [7, 0, 60]<br/>class = Não Exposição>, fillcolor="#8139e5e1"] ;
679 -> 687 ;
688 [label=<gini = 0.195<br/>samples = 64<br/>value = [7, 0, 57]<br/>class = Não Exposição>, fillcolor="#8139e5e0"] ;
687 -> 688 ;
689 [label=<gini = 0.0<br/>samples = 3<br/>value = [0, 0, 3]<br/>class = Não Exposição>, fillcolor="#8139e5ff"] ;
687 -> 689 ;
690 [label=<classificacao_idade &le; 1.5<br/>gini = 0.195<br/>samples = 82<br/>value = [9, 0, 73]<br/>class = Não Exposição>, fillcolor="#8139e5e0"] ;
678 -> 690 ;
691 [label=<classificacao_idade &le; 0.5<br/>gini = 0.107<br/>samples = 53<br/>value = [3, 0, 50]<br/>class = Não Exposição>, fillcolor="#8139e5f0"] ;
690 -> 691 ;
692 [label=<gini = 0.0<br/>samples = 18<br/>value = [0, 0, 18]<br/>class = Não Exposição>, fillcolor="#8139e5ff"] ;
691 -> 692 ;
693 [label=<gini = 0.157<br/>samples = 35<br/>value = [3, 0, 32]<br/>class = Não Exposição>, fillcolor="#8139e5e7"] ;
691 -> 693 ;
694 [label=<local_atendimento &le; 3.5<br/>gini = 0.328<br/>samples = 29<br/>value = [6, 0, 23]<br/>class = Não Exposição>, fillcolor="#8139e5bc"] ;
690 -> 694 ;
695 [label=<gini = 0.302<br/>samples = 27<br/>value = [5, 0, 22]<br/>class = Não Exposição>, fillcolor="#8139e5c5"] ;
694 -> 695 ;
696 [label=<gini = 0.5<br/>samples = 2<br/>value = [1, 0, 1]<br/>class = Favorável>, fillcolor="#e5813900"] ;
694 -> 696 ;
697 [label=<sexo &le; 0.5<br/>gini = 0.309<br/>samples = 220<br/>value = [42, 0, 178]<br/>class = Não Exposição>, fillcolor="#8139e5c3"] ;
677 -> 697 ;
698 [label=<classificacao_idade &le; 3.5<br/>gini = 0.276<br/>samples = 127<br/>value = [21, 0, 106]<br/>class = Não Exposição>, fillcolor="#8139e5cc"] ;
697 -> 698 ;
699 [label=<local_atendimento &le; 3.5<br/>gini = 0.288<br/>samples = 109<br/>value = [19, 0, 90]<br/>class = Não Exposição>, fillcolor="#8139e5c9"] ;
698 -> 699 ;
700 [label=<gini = 0.276<br/>samples = 103<br/>value = [17, 0, 86]<br/>class = Não Exposição>, fillcolor="#8139e5cd"] ;
699 -> 700 ;
701 [label=<gini = 0.444<br/>samples = 6<br/>value = [2, 0, 4]<br/>class = Não Exposição>, fillcolor="#8139e57f"] ;
699 -> 701 ;
702 [label=<local_atendimento &le; 3.5<br/>gini = 0.198<br/>samples = 18<br/>value = [2, 0, 16]<br/>class = Não Exposição>, fillcolor="#8139e5df"] ;
698 -> 702 ;
703 [label=<gini = 0.219<br/>samples = 16<br/>value = [2, 0, 14]<br/>class = Não Exposição>, fillcolor="#8139e5db"] ;
702 -> 703 ;
704 [label=<gini = 0.0<br/>samples = 2<br/>value = [0, 0, 2]<br/>class = Não Exposição>, fillcolor="#8139e5ff"] ;
702 -> 704 ;
705 [label=<local_atendimento &le; 3.5<br/>gini = 0.35<br/>samples = 93<br/>value = [21, 0, 72]<br/>class = Não Exposição>, fillcolor="#8139e5b5"] ;
697 -> 705 ;
706 [label=<classificacao_idade &le; 3.5<br/>gini = 0.341<br/>samples = 87<br/>value = [19, 0, 68]<br/>class = Não Exposição>, fillcolor="#8139e5b8"] ;
705 -> 706 ;
707 [label=<gini = 0.351<br/>samples = 66<br/>value = [15, 0, 51]<br/>class = Não Exposição>, fillcolor="#8139e5b4"] ;
706 -> 707 ;
708 [label=<gini = 0.308<br/>samples = 21<br/>value = [4, 0, 17]<br/>class = Não Exposição>, fillcolor="#8139e5c3"] ;
706 -> 708 ;
